digraph Tree {
node [shape=box, fontname="helvetica"] ;
edge [fontname="helvetica"] ;
0 [label="X[4] <= 258.97\ngini = 0.476\nsamples = 3276\nvalue = [1998, 1278]"] ;
1 [label="X[2] <= 21161.408\ngini = 0.394\nsamples = 89\nvalue = [24, 65]"] ;
0 -> 1 [labeldistance=2.5, labelangle=45, headlabel="True"] ;
2 [label="X[0] <= 7.947\ngini = 0.477\nsamples = 28\nvalue = [17, 11]"] ;
1 -> 2 ;
3 [label="X[4] <= 224.865\ngini = 0.386\nsamples = 23\nvalue = [17, 6]"] ;
2 -> 3 ;
4 [label="X[8] <= 3.142\ngini = 0.32\nsamples = 5\nvalue = [1, 4]"] ;
3 -> 4 ;
5 [label="gini = 0.0\nsamples = 1\nvalue = [1, 0]"] ;
4 -> 5 ;
6 [label="gini = 0.0\nsamples = 4\nvalue = [0, 4]"] ;
4 -> 6 ;
7 [label="X[3] <= 4.178\ngini = 0.198\nsamples = 18\nvalue = [16, 2]"] ;
3 -> 7 ;
8 [label="X[1] <= 172.545\ngini = 0.444\nsamples = 3\nvalue = [1, 2]"] ;
7 -> 8 ;
9 [label="gini = 0.0\nsamples = 1\nvalue = [1, 0]"] ;
8 -> 9 ;
10 [label="gini = 0.0\nsamples = 2\nvalue = [0, 2]"] ;
8 -> 10 ;
11 [label="gini = 0.0\nsamples = 15\nvalue = [15, 0]"] ;
7 -> 11 ;
12 [label="gini = 0.0\nsamples = 5\nvalue = [0, 5]"] ;
2 -> 12 ;
13 [label="X[0] <= 5.825\ngini = 0.203\nsamples = 61\nvalue = [7, 54]"] ;
1 -> 13 ;
14 [label="X[5] <= 454.643\ngini = 0.5\nsamples = 8\nvalue = [4, 4]"] ;
13 -> 14 ;
15 [label="gini = 0.0\nsamples = 4\nvalue = [0, 4]"] ;
14 -> 15 ;
16 [label="gini = 0.0\nsamples = 4\nvalue = [4, 0]"] ;
14 -> 16 ;
17 [label="X[0] <= 11.53\ngini = 0.107\nsamples = 53\nvalue = [3, 50]"] ;
13 -> 17 ;
18 [label="X[8] <= 4.659\ngini = 0.074\nsamples = 52\nvalue = [2, 50]"] ;
17 -> 18 ;
19 [label="gini = 0.0\nsamples = 46\nvalue = [0, 46]"] ;
18 -> 19 ;
20 [label="X[8] <= 5.112\ngini = 0.444\nsamples = 6\nvalue = [2, 4]"] ;
18 -> 20 ;
21 [label="gini = 0.0\nsamples = 2\nvalue = [2, 0]"] ;
20 -> 21 ;
22 [label="gini = 0.0\nsamples = 4\nvalue = [0, 4]"] ;
20 -> 22 ;
23 [label="gini = 0.0\nsamples = 1\nvalue = [1, 0]"] ;
17 -> 23 ;
24 [label="X[4] <= 387.796\ngini = 0.471\nsamples = 3187\nvalue = [1974, 1213]"] ;
0 -> 24 [labeldistance=2.5, labelangle=-45, headlabel="False"] ;
25 [label="X[0] <= 4.636\ngini = 0.466\nsamples = 2955\nvalue = [1863, 1092]"] ;
24 -> 25 ;
26 [label="X[1] <= 268.113\ngini = 0.327\nsamples = 146\nvalue = [116, 30]"] ;
25 -> 26 ;
27 [label="X[3] <= 5.262\ngini = 0.292\nsamples = 141\nvalue = [116, 25]"] ;
26 -> 27 ;
28 [label="X[5] <= 433.972\ngini = 0.42\nsamples = 10\nvalue = [3, 7]"] ;
27 -> 28 ;
29 [label="X[2] <= 14068.292\ngini = 0.375\nsamples = 4\nvalue = [3, 1]"] ;
28 -> 29 ;
30 [label="gini = 0.0\nsamples = 1\nvalue = [0, 1]"] ;
29 -> 30 ;
31 [label="gini = 0.0\nsamples = 3\nvalue = [3, 0]"] ;
29 -> 31 ;
32 [label="gini = 0.0\nsamples = 6\nvalue = [0, 6]"] ;
28 -> 32 ;
33 [label="X[4] <= 326.695\ngini = 0.237\nsamples = 131\nvalue = [113, 18]"] ;
27 -> 33 ;
34 [label="gini = 0.0\nsamples = 53\nvalue = [53, 0]"] ;
33 -> 34 ;
35 [label="X[2] <= 11881.833\ngini = 0.355\nsamples = 78\nvalue = [60, 18]"] ;
33 -> 35 ;
36 [label="X[3] <= 10.785\ngini = 0.408\nsamples = 7\nvalue = [2, 5]"] ;
35 -> 36 ;
37 [label="gini = 0.0\nsamples = 5\nvalue = [0, 5]"] ;
36 -> 37 ;
38 [label="gini = 0.0\nsamples = 2\nvalue = [2, 0]"] ;
36 -> 38 ;
39 [label="X[5] <= 527.089\ngini = 0.299\nsamples = 71\nvalue = [58, 13]"] ;
35 -> 39 ;
40 [label="X[1] <= 150.245\ngini = 0.212\nsamples = 58\nvalue = [51, 7]"] ;
39 -> 40 ;
41 [label="X[1] <= 130.819\ngini = 0.463\nsamples = 11\nvalue = [7, 4]"] ;
40 -> 41 ;
42 [label="gini = 0.0\nsamples = 6\nvalue = [6, 0]"] ;
41 -> 42 ;
43 [label="X[4] <= 333.743\ngini = 0.32\nsamples = 5\nvalue = [1, 4]"] ;
41 -> 43 ;
44 [label="gini = 0.0\nsamples = 1\nvalue = [1, 0]"] ;
43 -> 44 ;
45 [label="gini = 0.0\nsamples = 4\nvalue = [0, 4]"] ;
43 -> 45 ;
46 [label="X[5] <= 266.979\ngini = 0.12\nsamples = 47\nvalue = [44, 3]"] ;
40 -> 46 ;
47 [label="gini = 0.0\nsamples = 1\nvalue = [0, 1]"] ;
46 -> 47 ;
48 [label="X[1] <= 238.976\ngini = 0.083\nsamples = 46\nvalue = [44, 2]"] ;
46 -> 48 ;
49 [label="X[3] <= 6.209\ngini = 0.044\nsamples = 44\nvalue = [43, 1]"] ;
48 -> 49 ;
50 [label="X[8] <= 4.215\ngini = 0.32\nsamples = 5\nvalue = [4, 1]"] ;
49 -> 50 ;
51 [label="gini = 0.0\nsamples = 4\nvalue = [4, 0]"] ;
50 -> 51 ;
52 [label="gini = 0.0\nsamples = 1\nvalue = [0, 1]"] ;
50 -> 52 ;
53 [label="gini = 0.0\nsamples = 39\nvalue = [39, 0]"] ;
49 -> 53 ;
54 [label="X[6] <= 16.848\ngini = 0.5\nsamples = 2\nvalue = [1, 1]"] ;
48 -> 54 ;
55 [label="gini = 0.0\nsamples = 1\nvalue = [0, 1]"] ;
54 -> 55 ;
56 [label="gini = 0.0\nsamples = 1\nvalue = [1, 0]"] ;
54 -> 56 ;
57 [label="X[6] <= 11.304\ngini = 0.497\nsamples = 13\nvalue = [7, 6]"] ;
39 -> 57 ;
58 [label="gini = 0.0\nsamples = 3\nvalue = [3, 0]"] ;
57 -> 58 ;
59 [label="X[8] <= 4.791\ngini = 0.48\nsamples = 10\nvalue = [4, 6]"] ;
57 -> 59 ;
60 [label="X[6] <= 14.548\ngini = 0.375\nsamples = 8\nvalue = [2, 6]"] ;
59 -> 60 ;
61 [label="gini = 0.0\nsamples = 5\nvalue = [0, 5]"] ;
60 -> 61 ;
62 [label="X[2] <= 18334.267\ngini = 0.444\nsamples = 3\nvalue = [2, 1]"] ;
60 -> 62 ;
63 [label="gini = 0.0\nsamples = 1\nvalue = [0, 1]"] ;
62 -> 63 ;
64 [label="gini = 0.0\nsamples = 2\nvalue = [2, 0]"] ;
62 -> 64 ;
65 [label="gini = 0.0\nsamples = 2\nvalue = [2, 0]"] ;
59 -> 65 ;
66 [label="gini = 0.0\nsamples = 5\nvalue = [0, 5]"] ;
26 -> 66 ;
67 [label="X[4] <= 294.901\ngini = 0.47\nsamples = 2809\nvalue = [1747, 1062]"] ;
25 -> 67 ;
68 [label="X[0] <= 7.274\ngini = 0.5\nsamples = 276\nvalue = [137, 139]"] ;
67 -> 68 ;
69 [label="X[3] <= 5.728\ngini = 0.48\nsamples = 178\nvalue = [107, 71]"] ;
68 -> 69 ;
70 [label="X[2] <= 23553.912\ngini = 0.45\nsamples = 41\nvalue = [14, 27]"] ;
69 -> 70 ;
71 [label="X[0] <= 5.803\ngini = 0.484\nsamples = 17\nvalue = [10, 7]"] ;
70 -> 71 ;
72 [label="gini = 0.0\nsamples = 3\nvalue = [0, 3]"] ;
71 -> 72 ;
73 [label="X[4] <= 290.3\ngini = 0.408\nsamples = 14\nvalue = [10, 4]"] ;
71 -> 73 ;
74 [label="X[8] <= 2.49\ngini = 0.278\nsamples = 12\nvalue = [10, 2]"] ;
73 -> 74 ;
75 [label="gini = 0.0\nsamples = 1\nvalue = [0, 1]"] ;
74 -> 75 ;
76 [label="X[1] <= 125.266\ngini = 0.165\nsamples = 11\nvalue = [10, 1]"] ;
74 -> 76 ;
77 [label="gini = 0.0\nsamples = 1\nvalue = [0, 1]"] ;
76 -> 77 ;
78 [label="gini = 0.0\nsamples = 10\nvalue = [10, 0]"] ;
76 -> 78 ;
79 [label="gini = 0.0\nsamples = 2\nvalue = [0, 2]"] ;
73 -> 79 ;
80 [label="X[5] <= 279.187\ngini = 0.278\nsamples = 24\nvalue = [4, 20]"] ;
70 -> 80 ;
81 [label="gini = 0.0\nsamples = 1\nvalue = [1, 0]"] ;
80 -> 81 ;
82 [label="X[7] <= 34.845\ngini = 0.227\nsamples = 23\nvalue = [3, 20]"] ;
80 -> 82 ;
83 [label="gini = 0.0\nsamples = 1\nvalue = [1, 0]"] ;
82 -> 83 ;
84 [label="X[5] <= 563.811\ngini = 0.165\nsamples = 22\nvalue = [2, 20]"] ;
82 -> 84 ;
85 [label="X[0] <= 7.208\ngini = 0.091\nsamples = 21\nvalue = [1, 20]"] ;
84 -> 85 ;
86 [label="gini = 0.0\nsamples = 18\nvalue = [0, 18]"] ;
85 -> 86 ;
87 [label="X[7] <= 73.318\ngini = 0.444\nsamples = 3\nvalue = [1, 2]"] ;
85 -> 87 ;
88 [label="gini = 0.0\nsamples = 2\nvalue = [0, 2]"] ;
87 -> 88 ;
89 [label="gini = 0.0\nsamples = 1\nvalue = [1, 0]"] ;
87 -> 89 ;
90 [label="gini = 0.0\nsamples = 1\nvalue = [1, 0]"] ;
84 -> 90 ;
91 [label="X[3] <= 8.484\ngini = 0.436\nsamples = 137\nvalue = [93, 44]"] ;
69 -> 91 ;
92 [label="X[1] <= 280.974\ngini = 0.37\nsamples = 102\nvalue = [77, 25]"] ;
91 -> 92 ;
93 [label="X[1] <= 218.381\ngini = 0.346\nsamples = 99\nvalue = [77, 22]"] ;
92 -> 93 ;
94 [label="X[0] <= 7.055\ngini = 0.427\nsamples = 68\nvalue = [47, 21]"] ;
93 -> 94 ;
95 [label="X[6] <= 7.738\ngini = 0.331\nsamples = 43\nvalue = [34, 9]"] ;
94 -> 95 ;
96 [label="gini = 0.0\nsamples = 2\nvalue = [0, 2]"] ;
95 -> 96 ;
97 [label="X[7] <= 95.457\ngini = 0.283\nsamples = 41\nvalue = [34, 7]"] ;
95 -> 97 ;
98 [label="X[0] <= 4.833\ngini = 0.229\nsamples = 38\nvalue = [33, 5]"] ;
97 -> 98 ;
99 [label="gini = 0.0\nsamples = 1\nvalue = [0, 1]"] ;
98 -> 99 ;
100 [label="X[2] <= 8248.674\ngini = 0.193\nsamples = 37\nvalue = [33, 4]"] ;
98 -> 100 ;
101 [label="gini = 0.0\nsamples = 1\nvalue = [0, 1]"] ;
100 -> 101 ;
102 [label="X[5] <= 362.653\ngini = 0.153\nsamples = 36\nvalue = [33, 3]"] ;
100 -> 102 ;
103 [label="X[6] <= 14.229\ngini = 0.375\nsamples = 8\nvalue = [6, 2]"] ;
102 -> 103 ;
104 [label="X[4] <= 285.231\ngini = 0.444\nsamples = 3\nvalue = [1, 2]"] ;
103 -> 104 ;
105 [label="gini = 0.0\nsamples = 2\nvalue = [0, 2]"] ;
104 -> 105 ;
106 [label="gini = 0.0\nsamples = 1\nvalue = [1, 0]"] ;
104 -> 106 ;
107 [label="gini = 0.0\nsamples = 5\nvalue = [5, 0]"] ;
103 -> 107 ;
108 [label="X[6] <= 18.118\ngini = 0.069\nsamples = 28\nvalue = [27, 1]"] ;
102 -> 108 ;
109 [label="gini = 0.0\nsamples = 24\nvalue = [24, 0]"] ;
108 -> 109 ;
110 [label="X[3] <= 6.648\ngini = 0.375\nsamples = 4\nvalue = [3, 1]"] ;
108 -> 110 ;
111 [label="gini = 0.0\nsamples = 1\nvalue = [0, 1]"] ;
110 -> 111 ;
112 [label="gini = 0.0\nsamples = 3\nvalue = [3, 0]"] ;
110 -> 112 ;
113 [label="X[8] <= 4.112\ngini = 0.444\nsamples = 3\nvalue = [1, 2]"] ;
97 -> 113 ;
114 [label="gini = 0.0\nsamples = 2\nvalue = [0, 2]"] ;
113 -> 114 ;
115 [label="gini = 0.0\nsamples = 1\nvalue = [1, 0]"] ;
113 -> 115 ;
116 [label="X[6] <= 14.316\ngini = 0.499\nsamples = 25\nvalue = [13, 12]"] ;
94 -> 116 ;
117 [label="X[1] <= 203.038\ngini = 0.391\nsamples = 15\nvalue = [11, 4]"] ;
116 -> 117 ;
118 [label="gini = 0.0\nsamples = 8\nvalue = [8, 0]"] ;
117 -> 118 ;
119 [label="X[2] <= 24416.963\ngini = 0.49\nsamples = 7\nvalue = [3, 4]"] ;
117 -> 119 ;
120 [label="gini = 0.0\nsamples = 4\nvalue = [0, 4]"] ;
119 -> 120 ;
121 [label="gini = 0.0\nsamples = 3\nvalue = [3, 0]"] ;
119 -> 121 ;
122 [label="X[4] <= 278.546\ngini = 0.32\nsamples = 10\nvalue = [2, 8]"] ;
116 -> 122 ;
123 [label="X[3] <= 6.522\ngini = 0.444\nsamples = 3\nvalue = [2, 1]"] ;
122 -> 123 ;
124 [label="gini = 0.0\nsamples = 1\nvalue = [0, 1]"] ;
123 -> 124 ;
125 [label="gini = 0.0\nsamples = 2\nvalue = [2, 0]"] ;
123 -> 125 ;
126 [label="gini = 0.0\nsamples = 7\nvalue = [0, 7]"] ;
122 -> 126 ;
127 [label="X[8] <= 5.049\ngini = 0.062\nsamples = 31\nvalue = [30, 1]"] ;
93 -> 127 ;
128 [label="gini = 0.0\nsamples = 30\nvalue = [30, 0]"] ;
127 -> 128 ;
129 [label="gini = 0.0\nsamples = 1\nvalue = [0, 1]"] ;
127 -> 129 ;
130 [label="gini = 0.0\nsamples = 3\nvalue = [0, 3]"] ;
92 -> 130 ;
131 [label="X[2] <= 29866.189\ngini = 0.496\nsamples = 35\nvalue = [16, 19]"] ;
91 -> 131 ;
132 [label="X[6] <= 10.723\ngini = 0.48\nsamples = 25\nvalue = [15, 10]"] ;
131 -> 132 ;
133 [label="gini = 0.0\nsamples = 5\nvalue = [0, 5]"] ;
132 -> 133 ;
134 [label="X[5] <= 506.627\ngini = 0.375\nsamples = 20\nvalue = [15, 5]"] ;
132 -> 134 ;
135 [label="X[3] <= 8.578\ngini = 0.219\nsamples = 16\nvalue = [14, 2]"] ;
134 -> 135 ;
136 [label="gini = 0.0\nsamples = 1\nvalue = [0, 1]"] ;
135 -> 136 ;
137 [label="X[8] <= 3.18\ngini = 0.124\nsamples = 15\nvalue = [14, 1]"] ;
135 -> 137 ;
138 [label="X[4] <= 277.219\ngini = 0.5\nsamples = 2\nvalue = [1, 1]"] ;
137 -> 138 ;
139 [label="gini = 0.0\nsamples = 1\nvalue = [0, 1]"] ;
138 -> 139 ;
140 [label="gini = 0.0\nsamples = 1\nvalue = [1, 0]"] ;
138 -> 140 ;
141 [label="gini = 0.0\nsamples = 13\nvalue = [13, 0]"] ;
137 -> 141 ;
142 [label="X[6] <= 12.398\ngini = 0.375\nsamples = 4\nvalue = [1, 3]"] ;
134 -> 142 ;
143 [label="gini = 0.0\nsamples = 1\nvalue = [1, 0]"] ;
142 -> 143 ;
144 [label="gini = 0.0\nsamples = 3\nvalue = [0, 3]"] ;
142 -> 144 ;
145 [label="X[0] <= 6.232\ngini = 0.18\nsamples = 10\nvalue = [1, 9]"] ;
131 -> 145 ;
146 [label="gini = 0.0\nsamples = 1\nvalue = [1, 0]"] ;
145 -> 146 ;
147 [label="gini = 0.0\nsamples = 9\nvalue = [0, 9]"] ;
145 -> 147 ;
148 [label="X[1] <= 206.117\ngini = 0.425\nsamples = 98\nvalue = [30, 68]"] ;
68 -> 148 ;
149 [label="X[5] <= 481.913\ngini = 0.249\nsamples = 48\nvalue = [7, 41]"] ;
148 -> 149 ;
150 [label="X[7] <= 52.748\ngini = 0.053\nsamples = 37\nvalue = [1, 36]"] ;
149 -> 150 ;
151 [label="X[6] <= 13.738\ngini = 0.5\nsamples = 2\nvalue = [1, 1]"] ;
150 -> 151 ;
152 [label="gini = 0.0\nsamples = 1\nvalue = [1, 0]"] ;
151 -> 152 ;
153 [label="gini = 0.0\nsamples = 1\nvalue = [0, 1]"] ;
151 -> 153 ;
154 [label="gini = 0.0\nsamples = 35\nvalue = [0, 35]"] ;
150 -> 154 ;
155 [label="X[2] <= 21613.286\ngini = 0.496\nsamples = 11\nvalue = [6, 5]"] ;
149 -> 155 ;
156 [label="gini = 0.0\nsamples = 5\nvalue = [5, 0]"] ;
155 -> 156 ;
157 [label="X[6] <= 9.051\ngini = 0.278\nsamples = 6\nvalue = [1, 5]"] ;
155 -> 157 ;
158 [label="gini = 0.0\nsamples = 1\nvalue = [1, 0]"] ;
157 -> 158 ;
159 [label="gini = 0.0\nsamples = 5\nvalue = [0, 5]"] ;
157 -> 159 ;
160 [label="X[3] <= 8.664\ngini = 0.497\nsamples = 50\nvalue = [23, 27]"] ;
148 -> 160 ;
161 [label="X[4] <= 286.674\ngini = 0.495\nsamples = 42\nvalue = [23, 19]"] ;
160 -> 161 ;
162 [label="X[8] <= 3.525\ngini = 0.483\nsamples = 27\nvalue = [11, 16]"] ;
161 -> 162 ;
163 [label="X[4] <= 281.857\ngini = 0.375\nsamples = 12\nvalue = [9, 3]"] ;
162 -> 163 ;
164 [label="X[0] <= 8.554\ngini = 0.198\nsamples = 9\nvalue = [8, 1]"] ;
163 -> 164 ;
165 [label="gini = 0.0\nsamples = 8\nvalue = [8, 0]"] ;
164 -> 165 ;
166 [label="gini = 0.0\nsamples = 1\nvalue = [0, 1]"] ;
164 -> 166 ;
167 [label="X[3] <= 4.343\ngini = 0.444\nsamples = 3\nvalue = [1, 2]"] ;
163 -> 167 ;
168 [label="gini = 0.0\nsamples = 1\nvalue = [1, 0]"] ;
167 -> 168 ;
169 [label="gini = 0.0\nsamples = 2\nvalue = [0, 2]"] ;
167 -> 169 ;
170 [label="X[0] <= 9.262\ngini = 0.231\nsamples = 15\nvalue = [2, 13]"] ;
162 -> 170 ;
171 [label="gini = 0.0\nsamples = 12\nvalue = [0, 12]"] ;
170 -> 171 ;
172 [label="X[1] <= 240.023\ngini = 0.444\nsamples = 3\nvalue = [2, 1]"] ;
170 -> 172 ;
173 [label="gini = 0.0\nsamples = 1\nvalue = [0, 1]"] ;
172 -> 173 ;
174 [label="gini = 0.0\nsamples = 2\nvalue = [2, 0]"] ;
172 -> 174 ;
175 [label="X[2] <= 20204.376\ngini = 0.32\nsamples = 15\nvalue = [12, 3]"] ;
161 -> 175 ;
176 [label="X[0] <= 7.777\ngini = 0.5\nsamples = 6\nvalue = [3, 3]"] ;
175 -> 176 ;
177 [label="gini = 0.0\nsamples = 2\nvalue = [0, 2]"] ;
176 -> 177 ;
178 [label="X[8] <= 3.065\ngini = 0.375\nsamples = 4\nvalue = [3, 1]"] ;
176 -> 178 ;
179 [label="gini = 0.0\nsamples = 1\nvalue = [0, 1]"] ;
178 -> 179 ;
180 [label="gini = 0.0\nsamples = 3\nvalue = [3, 0]"] ;
178 -> 180 ;
181 [label="gini = 0.0\nsamples = 9\nvalue = [9, 0]"] ;
175 -> 181 ;
182 [label="gini = 0.0\nsamples = 8\nvalue = [0, 8]"] ;
160 -> 182 ;
183 [label="X[1] <= 136.441\ngini = 0.463\nsamples = 2533\nvalue = [1610, 923]"] ;
67 -> 183 ;
184 [label="X[2] <= 11808.521\ngini = 0.478\nsamples = 71\nvalue = [28, 43]"] ;
183 -> 184 ;
185 [label="gini = 0.0\nsamples = 10\nvalue = [0, 10]"] ;
184 -> 185 ;
186 [label="X[1] <= 100.973\ngini = 0.497\nsamples = 61\nvalue = [28, 33]"] ;
184 -> 186 ;
187 [label="gini = 0.0\nsamples = 9\nvalue = [0, 9]"] ;
186 -> 187 ;
188 [label="X[0] <= 7.18\ngini = 0.497\nsamples = 52\nvalue = [28, 24]"] ;
186 -> 188 ;
189 [label="X[6] <= 13.079\ngini = 0.413\nsamples = 24\nvalue = [17, 7]"] ;
188 -> 189 ;
190 [label="gini = 0.0\nsamples = 10\nvalue = [10, 0]"] ;
189 -> 190 ;
191 [label="X[3] <= 8.315\ngini = 0.5\nsamples = 14\nvalue = [7, 7]"] ;
189 -> 191 ;
192 [label="X[5] <= 325.919\ngini = 0.463\nsamples = 11\nvalue = [7, 4]"] ;
191 -> 192 ;
193 [label="gini = 0.0\nsamples = 2\nvalue = [0, 2]"] ;
192 -> 193 ;
194 [label="X[7] <= 51.772\ngini = 0.346\nsamples = 9\nvalue = [7, 2]"] ;
192 -> 194 ;
195 [label="gini = 0.0\nsamples = 2\nvalue = [0, 2]"] ;
194 -> 195 ;
196 [label="gini = 0.0\nsamples = 7\nvalue = [7, 0]"] ;
194 -> 196 ;
197 [label="gini = 0.0\nsamples = 3\nvalue = [0, 3]"] ;
191 -> 197 ;
198 [label="X[7] <= 64.67\ngini = 0.477\nsamples = 28\nvalue = [11, 17]"] ;
188 -> 198 ;
199 [label="X[4] <= 375.401\ngini = 0.278\nsamples = 12\nvalue = [2, 10]"] ;
198 -> 199 ;
200 [label="gini = 0.0\nsamples = 10\nvalue = [0, 10]"] ;
199 -> 200 ;
201 [label="gini = 0.0\nsamples = 2\nvalue = [2, 0]"] ;
199 -> 201 ;
202 [label="X[8] <= 4.224\ngini = 0.492\nsamples = 16\nvalue = [9, 7]"] ;
198 -> 202 ;
203 [label="X[1] <= 114.101\ngini = 0.486\nsamples = 12\nvalue = [5, 7]"] ;
202 -> 203 ;
204 [label="gini = 0.0\nsamples = 2\nvalue = [0, 2]"] ;
203 -> 204 ;
205 [label="X[5] <= 476.957\ngini = 0.5\nsamples = 10\nvalue = [5, 5]"] ;
203 -> 205 ;
206 [label="X[2] <= 29070.192\ngini = 0.469\nsamples = 8\nvalue = [3, 5]"] ;
205 -> 206 ;
207 [label="gini = 0.0\nsamples = 3\nvalue = [0, 3]"] ;
206 -> 207 ;
208 [label="X[2] <= 34017.791\ngini = 0.48\nsamples = 5\nvalue = [3, 2]"] ;
206 -> 208 ;
209 [label="gini = 0.0\nsamples = 2\nvalue = [2, 0]"] ;
208 -> 209 ;
210 [label="X[1] <= 121.215\ngini = 0.444\nsamples = 3\nvalue = [1, 2]"] ;
208 -> 210 ;
211 [label="gini = 0.0\nsamples = 1\nvalue = [1, 0]"] ;
210 -> 211 ;
212 [label="gini = 0.0\nsamples = 2\nvalue = [0, 2]"] ;
210 -> 212 ;
213 [label="gini = 0.0\nsamples = 2\nvalue = [2, 0]"] ;
205 -> 213 ;
214 [label="gini = 0.0\nsamples = 4\nvalue = [4, 0]"] ;
202 -> 214 ;
215 [label="X[0] <= 8.382\ngini = 0.459\nsamples = 2462\nvalue = [1582, 880]"] ;
183 -> 215 ;
216 [label="X[4] <= 353.568\ngini = 0.469\nsamples = 2050\nvalue = [1279, 771]"] ;
215 -> 216 ;
217 [label="X[7] <= 112.731\ngini = 0.458\nsamples = 1653\nvalue = [1065, 588]"] ;
216 -> 217 ;
218 [label="X[1] <= 239.205\ngini = 0.457\nsamples = 1648\nvalue = [1065, 583]"] ;
217 -> 218 ;
219 [label="X[4] <= 333.898\ngini = 0.452\nsamples = 1548\nvalue = [1014, 534]"] ;
218 -> 219 ;
220 [label="X[0] <= 6.277\ngini = 0.463\nsamples = 1199\nvalue = [762, 437]"] ;
219 -> 220 ;
221 [label="X[3] <= 5.282\ngini = 0.404\nsamples = 317\nvalue = [228, 89]"] ;
220 -> 221 ;
222 [label="X[5] <= 396.675\ngini = 0.452\nsamples = 29\nvalue = [10, 19]"] ;
221 -> 222 ;
223 [label="X[1] <= 187.655\ngini = 0.153\nsamples = 12\nvalue = [1, 11]"] ;
222 -> 223 ;
224 [label="X[5] <= 341.362\ngini = 0.444\nsamples = 3\nvalue = [1, 2]"] ;
223 -> 224 ;
225 [label="gini = 0.0\nsamples = 1\nvalue = [1, 0]"] ;
224 -> 225 ;
226 [label="gini = 0.0\nsamples = 2\nvalue = [0, 2]"] ;
224 -> 226 ;
227 [label="gini = 0.0\nsamples = 9\nvalue = [0, 9]"] ;
223 -> 227 ;
228 [label="X[3] <= 4.526\ngini = 0.498\nsamples = 17\nvalue = [9, 8]"] ;
222 -> 228 ;
229 [label="X[7] <= 54.253\ngini = 0.32\nsamples = 5\nvalue = [1, 4]"] ;
228 -> 229 ;
230 [label="gini = 0.0\nsamples = 1\nvalue = [1, 0]"] ;
229 -> 230 ;
231 [label="gini = 0.0\nsamples = 4\nvalue = [0, 4]"] ;
229 -> 231 ;
232 [label="X[3] <= 5.231\ngini = 0.444\nsamples = 12\nvalue = [8, 4]"] ;
228 -> 232 ;
233 [label="X[4] <= 301.334\ngini = 0.32\nsamples = 10\nvalue = [8, 2]"] ;
232 -> 233 ;
234 [label="gini = 0.0\nsamples = 1\nvalue = [0, 1]"] ;
233 -> 234 ;
235 [label="X[8] <= 4.55\ngini = 0.198\nsamples = 9\nvalue = [8, 1]"] ;
233 -> 235 ;
236 [label="gini = 0.0\nsamples = 8\nvalue = [8, 0]"] ;
235 -> 236 ;
237 [label="gini = 0.0\nsamples = 1\nvalue = [0, 1]"] ;
235 -> 237 ;
238 [label="gini = 0.0\nsamples = 2\nvalue = [0, 2]"] ;
232 -> 238 ;
239 [label="X[4] <= 319.895\ngini = 0.368\nsamples = 288\nvalue = [218, 70]"] ;
221 -> 239 ;
240 [label="X[3] <= 5.497\ngini = 0.198\nsamples = 99\nvalue = [88, 11]"] ;
239 -> 240 ;
241 [label="X[8] <= 4.895\ngini = 0.444\nsamples = 3\nvalue = [1, 2]"] ;
240 -> 241 ;
242 [label="gini = 0.0\nsamples = 2\nvalue = [0, 2]"] ;
241 -> 242 ;
243 [label="gini = 0.0\nsamples = 1\nvalue = [1, 0]"] ;
241 -> 243 ;
244 [label="X[0] <= 4.665\ngini = 0.17\nsamples = 96\nvalue = [87, 9]"] ;
240 -> 244 ;
245 [label="gini = 0.0\nsamples = 1\nvalue = [0, 1]"] ;
244 -> 245 ;
246 [label="X[0] <= 5.75\ngini = 0.154\nsamples = 95\nvalue = [87, 8]"] ;
244 -> 246 ;
247 [label="X[7] <= 94.832\ngini = 0.04\nsamples = 49\nvalue = [48, 1]"] ;
246 -> 247 ;
248 [label="gini = 0.0\nsamples = 47\nvalue = [47, 0]"] ;
247 -> 248 ;
249 [label="X[6] <= 14.896\ngini = 0.5\nsamples = 2\nvalue = [1, 1]"] ;
247 -> 249 ;
250 [label="gini = 0.0\nsamples = 1\nvalue = [0, 1]"] ;
249 -> 250 ;
251 [label="gini = 0.0\nsamples = 1\nvalue = [1, 0]"] ;
249 -> 251 ;
252 [label="X[1] <= 152.775\ngini = 0.258\nsamples = 46\nvalue = [39, 7]"] ;
246 -> 252 ;
253 [label="X[3] <= 7.206\ngini = 0.444\nsamples = 3\nvalue = [1, 2]"] ;
252 -> 253 ;
254 [label="gini = 0.0\nsamples = 1\nvalue = [1, 0]"] ;
253 -> 254 ;
255 [label="gini = 0.0\nsamples = 2\nvalue = [0, 2]"] ;
253 -> 255 ;
256 [label="X[3] <= 10.246\ngini = 0.206\nsamples = 43\nvalue = [38, 5]"] ;
252 -> 256 ;
257 [label="X[2] <= 16155.081\ngini = 0.172\nsamples = 42\nvalue = [38, 4]"] ;
256 -> 257 ;
258 [label="X[2] <= 15156.409\ngini = 0.375\nsamples = 12\nvalue = [9, 3]"] ;
257 -> 258 ;
259 [label="gini = 0.0\nsamples = 9\nvalue = [9, 0]"] ;
258 -> 259 ;
260 [label="gini = 0.0\nsamples = 3\nvalue = [0, 3]"] ;
258 -> 260 ;
261 [label="X[8] <= 2.154\ngini = 0.064\nsamples = 30\nvalue = [29, 1]"] ;
257 -> 261 ;
262 [label="X[7] <= 80.267\ngini = 0.5\nsamples = 2\nvalue = [1, 1]"] ;
261 -> 262 ;
263 [label="gini = 0.0\nsamples = 1\nvalue = [1, 0]"] ;
262 -> 263 ;
264 [label="gini = 0.0\nsamples = 1\nvalue = [0, 1]"] ;
262 -> 264 ;
265 [label="gini = 0.0\nsamples = 28\nvalue = [28, 0]"] ;
261 -> 265 ;
266 [label="gini = 0.0\nsamples = 1\nvalue = [0, 1]"] ;
256 -> 266 ;
267 [label="X[8] <= 4.007\ngini = 0.429\nsamples = 189\nvalue = [130, 59]"] ;
239 -> 267 ;
268 [label="X[2] <= 27989.396\ngini = 0.491\nsamples = 97\nvalue = [55, 42]"] ;
267 -> 268 ;
269 [label="X[0] <= 5.363\ngini = 0.498\nsamples = 72\nvalue = [34, 38]"] ;
268 -> 269 ;
270 [label="X[6] <= 11.386\ngini = 0.305\nsamples = 16\nvalue = [3, 13]"] ;
269 -> 270 ;
271 [label="X[8] <= 3.768\ngini = 0.444\nsamples = 3\nvalue = [2, 1]"] ;
270 -> 271 ;
272 [label="gini = 0.0\nsamples = 1\nvalue = [0, 1]"] ;
271 -> 272 ;
273 [label="gini = 0.0\nsamples = 2\nvalue = [2, 0]"] ;
271 -> 273 ;
274 [label="X[5] <= 333.407\ngini = 0.142\nsamples = 13\nvalue = [1, 12]"] ;
270 -> 274 ;
275 [label="gini = 0.0\nsamples = 1\nvalue = [1, 0]"] ;
274 -> 275 ;
276 [label="gini = 0.0\nsamples = 12\nvalue = [0, 12]"] ;
274 -> 276 ;
277 [label="X[7] <= 50.902\ngini = 0.494\nsamples = 56\nvalue = [31, 25]"] ;
269 -> 277 ;
278 [label="gini = 0.0\nsamples = 5\nvalue = [0, 5]"] ;
277 -> 278 ;
279 [label="X[7] <= 57.208\ngini = 0.477\nsamples = 51\nvalue = [31, 20]"] ;
277 -> 279 ;
280 [label="gini = 0.0\nsamples = 8\nvalue = [8, 0]"] ;
279 -> 280 ;
281 [label="X[1] <= 163.729\ngini = 0.498\nsamples = 43\nvalue = [23, 20]"] ;
279 -> 281 ;
282 [label="gini = 0.0\nsamples = 5\nvalue = [0, 5]"] ;
281 -> 282 ;
283 [label="X[7] <= 60.024\ngini = 0.478\nsamples = 38\nvalue = [23, 15]"] ;
281 -> 283 ;
284 [label="gini = 0.0\nsamples = 4\nvalue = [0, 4]"] ;
283 -> 284 ;
285 [label="X[3] <= 7.52\ngini = 0.438\nsamples = 34\nvalue = [23, 11]"] ;
283 -> 285 ;
286 [label="X[7] <= 70.781\ngini = 0.5\nsamples = 18\nvalue = [9, 9]"] ;
285 -> 286 ;
287 [label="X[3] <= 7.271\ngini = 0.278\nsamples = 6\nvalue = [5, 1]"] ;
286 -> 287 ;
288 [label="gini = 0.0\nsamples = 5\nvalue = [5, 0]"] ;
287 -> 288 ;
289 [label="gini = 0.0\nsamples = 1\nvalue = [0, 1]"] ;
287 -> 289 ;
290 [label="X[8] <= 3.057\ngini = 0.444\nsamples = 12\nvalue = [4, 8]"] ;
286 -> 290 ;
291 [label="gini = 0.0\nsamples = 2\nvalue = [2, 0]"] ;
290 -> 291 ;
292 [label="X[5] <= 353.067\ngini = 0.32\nsamples = 10\nvalue = [2, 8]"] ;
290 -> 292 ;
293 [label="gini = 0.0\nsamples = 1\nvalue = [1, 0]"] ;
292 -> 293 ;
294 [label="X[5] <= 540.692\ngini = 0.198\nsamples = 9\nvalue = [1, 8]"] ;
292 -> 294 ;
295 [label="gini = 0.0\nsamples = 8\nvalue = [0, 8]"] ;
294 -> 295 ;
296 [label="gini = 0.0\nsamples = 1\nvalue = [1, 0]"] ;
294 -> 296 ;
297 [label="X[8] <= 3.944\ngini = 0.219\nsamples = 16\nvalue = [14, 2]"] ;
285 -> 297 ;
298 [label="X[2] <= 21799.723\ngini = 0.124\nsamples = 15\nvalue = [14, 1]"] ;
297 -> 298 ;
299 [label="gini = 0.0\nsamples = 11\nvalue = [11, 0]"] ;
298 -> 299 ;
300 [label="X[8] <= 3.562\ngini = 0.375\nsamples = 4\nvalue = [3, 1]"] ;
298 -> 300 ;
301 [label="gini = 0.0\nsamples = 1\nvalue = [0, 1]"] ;
300 -> 301 ;
302 [label="gini = 0.0\nsamples = 3\nvalue = [3, 0]"] ;
300 -> 302 ;
303 [label="gini = 0.0\nsamples = 1\nvalue = [0, 1]"] ;
297 -> 303 ;
304 [label="X[5] <= 405.566\ngini = 0.269\nsamples = 25\nvalue = [21, 4]"] ;
268 -> 304 ;
305 [label="gini = 0.0\nsamples = 17\nvalue = [17, 0]"] ;
304 -> 305 ;
306 [label="X[7] <= 57.328\ngini = 0.5\nsamples = 8\nvalue = [4, 4]"] ;
304 -> 306 ;
307 [label="gini = 0.0\nsamples = 3\nvalue = [3, 0]"] ;
306 -> 307 ;
308 [label="X[4] <= 322.493\ngini = 0.32\nsamples = 5\nvalue = [1, 4]"] ;
306 -> 308 ;
309 [label="gini = 0.0\nsamples = 1\nvalue = [1, 0]"] ;
308 -> 309 ;
310 [label="gini = 0.0\nsamples = 4\nvalue = [0, 4]"] ;
308 -> 310 ;
311 [label="X[1] <= 217.766\ngini = 0.301\nsamples = 92\nvalue = [75, 17]"] ;
267 -> 311 ;
312 [label="X[7] <= 40.544\ngini = 0.23\nsamples = 83\nvalue = [72, 11]"] ;
311 -> 312 ;
313 [label="gini = 0.0\nsamples = 2\nvalue = [0, 2]"] ;
312 -> 313 ;
314 [label="X[4] <= 321.007\ngini = 0.198\nsamples = 81\nvalue = [72, 9]"] ;
312 -> 314 ;
315 [label="gini = 0.0\nsamples = 1\nvalue = [0, 1]"] ;
314 -> 315 ;
316 [label="X[5] <= 525.373\ngini = 0.18\nsamples = 80\nvalue = [72, 8]"] ;
314 -> 316 ;
317 [label="X[0] <= 5.87\ngini = 0.133\nsamples = 70\nvalue = [65, 5]"] ;
316 -> 317 ;
318 [label="gini = 0.0\nsamples = 41\nvalue = [41, 0]"] ;
317 -> 318 ;
319 [label="X[5] <= 383.262\ngini = 0.285\nsamples = 29\nvalue = [24, 5]"] ;
317 -> 319 ;
320 [label="X[1] <= 209.153\ngini = 0.444\nsamples = 3\nvalue = [1, 2]"] ;
319 -> 320 ;
321 [label="gini = 0.0\nsamples = 2\nvalue = [0, 2]"] ;
320 -> 321 ;
322 [label="gini = 0.0\nsamples = 1\nvalue = [1, 0]"] ;
320 -> 322 ;
323 [label="X[0] <= 5.885\ngini = 0.204\nsamples = 26\nvalue = [23, 3]"] ;
319 -> 323 ;
324 [label="gini = 0.0\nsamples = 1\nvalue = [0, 1]"] ;
323 -> 324 ;
325 [label="X[1] <= 158.401\ngini = 0.147\nsamples = 25\nvalue = [23, 2]"] ;
323 -> 325 ;
326 [label="X[2] <= 18977.594\ngini = 0.444\nsamples = 6\nvalue = [4, 2]"] ;
325 -> 326 ;
327 [label="gini = 0.0\nsamples = 3\nvalue = [3, 0]"] ;
326 -> 327 ;
328 [label="X[8] <= 4.236\ngini = 0.444\nsamples = 3\nvalue = [1, 2]"] ;
326 -> 328 ;
329 [label="gini = 0.0\nsamples = 1\nvalue = [1, 0]"] ;
328 -> 329 ;
330 [label="gini = 0.0\nsamples = 2\nvalue = [0, 2]"] ;
328 -> 330 ;
331 [label="gini = 0.0\nsamples = 19\nvalue = [19, 0]"] ;
325 -> 331 ;
332 [label="X[2] <= 13524.788\ngini = 0.42\nsamples = 10\nvalue = [7, 3]"] ;
316 -> 332 ;
333 [label="gini = 0.0\nsamples = 2\nvalue = [0, 2]"] ;
332 -> 333 ;
334 [label="X[5] <= 528.582\ngini = 0.219\nsamples = 8\nvalue = [7, 1]"] ;
332 -> 334 ;
335 [label="gini = 0.0\nsamples = 1\nvalue = [0, 1]"] ;
334 -> 335 ;
336 [label="gini = 0.0\nsamples = 7\nvalue = [7, 0]"] ;
334 -> 336 ;
337 [label="X[8] <= 4.784\ngini = 0.444\nsamples = 9\nvalue = [3, 6]"] ;
311 -> 337 ;
338 [label="X[0] <= 5.327\ngini = 0.375\nsamples = 4\nvalue = [3, 1]"] ;
337 -> 338 ;
339 [label="gini = 0.0\nsamples = 1\nvalue = [0, 1]"] ;
338 -> 339 ;
340 [label="gini = 0.0\nsamples = 3\nvalue = [3, 0]"] ;
338 -> 340 ;
341 [label="gini = 0.0\nsamples = 5\nvalue = [0, 5]"] ;
337 -> 341 ;
342 [label="X[1] <= 218.633\ngini = 0.478\nsamples = 882\nvalue = [534, 348]"] ;
220 -> 342 ;
343 [label="X[3] <= 6.031\ngini = 0.488\nsamples = 722\nvalue = [417, 305]"] ;
342 -> 343 ;
344 [label="X[1] <= 179.683\ngini = 0.427\nsamples = 152\nvalue = [105, 47]"] ;
343 -> 344 ;
345 [label="X[7] <= 60.878\ngini = 0.499\nsamples = 42\nvalue = [22, 20]"] ;
344 -> 345 ;
346 [label="X[7] <= 52.911\ngini = 0.337\nsamples = 14\nvalue = [11, 3]"] ;
345 -> 346 ;
347 [label="X[1] <= 172.226\ngini = 0.48\nsamples = 5\nvalue = [2, 3]"] ;
346 -> 347 ;
348 [label="X[6] <= 11.445\ngini = 0.444\nsamples = 3\nvalue = [2, 1]"] ;
347 -> 348 ;
349 [label="gini = 0.0\nsamples = 1\nvalue = [0, 1]"] ;
348 -> 349 ;
350 [label="gini = 0.0\nsamples = 2\nvalue = [2, 0]"] ;
348 -> 350 ;
351 [label="gini = 0.0\nsamples = 2\nvalue = [0, 2]"] ;
347 -> 351 ;
352 [label="gini = 0.0\nsamples = 9\nvalue = [9, 0]"] ;
346 -> 352 ;
353 [label="X[7] <= 70.554\ngini = 0.477\nsamples = 28\nvalue = [11, 17]"] ;
345 -> 353 ;
354 [label="X[6] <= 11.782\ngini = 0.231\nsamples = 15\nvalue = [2, 13]"] ;
353 -> 354 ;
355 [label="X[0] <= 7.413\ngini = 0.5\nsamples = 4\nvalue = [2, 2]"] ;
354 -> 355 ;
356 [label="gini = 0.0\nsamples = 2\nvalue = [2, 0]"] ;
355 -> 356 ;
357 [label="gini = 0.0\nsamples = 2\nvalue = [0, 2]"] ;
355 -> 357 ;
358 [label="gini = 0.0\nsamples = 11\nvalue = [0, 11]"] ;
354 -> 358 ;
359 [label="X[5] <= 362.724\ngini = 0.426\nsamples = 13\nvalue = [9, 4]"] ;
353 -> 359 ;
360 [label="X[1] <= 169.634\ngini = 0.375\nsamples = 4\nvalue = [1, 3]"] ;
359 -> 360 ;
361 [label="gini = 0.0\nsamples = 3\nvalue = [0, 3]"] ;
360 -> 361 ;
362 [label="gini = 0.0\nsamples = 1\nvalue = [1, 0]"] ;
360 -> 362 ;
363 [label="X[1] <= 178.148\ngini = 0.198\nsamples = 9\nvalue = [8, 1]"] ;
359 -> 363 ;
364 [label="gini = 0.0\nsamples = 8\nvalue = [8, 0]"] ;
363 -> 364 ;
365 [label="gini = 0.0\nsamples = 1\nvalue = [0, 1]"] ;
363 -> 365 ;
366 [label="X[1] <= 213.654\ngini = 0.37\nsamples = 110\nvalue = [83, 27]"] ;
344 -> 366 ;
367 [label="X[4] <= 301.257\ngini = 0.327\nsamples = 97\nvalue = [77, 20]"] ;
366 -> 367 ;
368 [label="X[0] <= 7.633\ngini = 0.496\nsamples = 11\nvalue = [5, 6]"] ;
367 -> 368 ;
369 [label="X[4] <= 296.851\ngini = 0.375\nsamples = 8\nvalue = [2, 6]"] ;
368 -> 369 ;
370 [label="gini = 0.0\nsamples = 2\nvalue = [2, 0]"] ;
369 -> 370 ;
371 [label="gini = 0.0\nsamples = 6\nvalue = [0, 6]"] ;
369 -> 371 ;
372 [label="gini = 0.0\nsamples = 3\nvalue = [3, 0]"] ;
368 -> 372 ;
373 [label="X[0] <= 6.445\ngini = 0.273\nsamples = 86\nvalue = [72, 14]"] ;
367 -> 373 ;
374 [label="X[5] <= 408.089\ngini = 0.48\nsamples = 5\nvalue = [2, 3]"] ;
373 -> 374 ;
375 [label="gini = 0.0\nsamples = 2\nvalue = [2, 0]"] ;
374 -> 375 ;
376 [label="gini = 0.0\nsamples = 3\nvalue = [0, 3]"] ;
374 -> 376 ;
377 [label="X[6] <= 16.076\ngini = 0.235\nsamples = 81\nvalue = [70, 11]"] ;
373 -> 377 ;
378 [label="X[7] <= 84.733\ngini = 0.144\nsamples = 64\nvalue = [59, 5]"] ;
377 -> 378 ;
379 [label="X[8] <= 5.498\ngini = 0.068\nsamples = 57\nvalue = [55, 2]"] ;
378 -> 379 ;
380 [label="X[3] <= 4.94\ngini = 0.035\nsamples = 56\nvalue = [55, 1]"] ;
379 -> 380 ;
381 [label="X[3] <= 4.792\ngini = 0.142\nsamples = 13\nvalue = [12, 1]"] ;
380 -> 381 ;
382 [label="gini = 0.0\nsamples = 12\nvalue = [12, 0]"] ;
381 -> 382 ;
383 [label="gini = 0.0\nsamples = 1\nvalue = [0, 1]"] ;
381 -> 383 ;
384 [label="gini = 0.0\nsamples = 43\nvalue = [43, 0]"] ;
380 -> 384 ;
385 [label="gini = 0.0\nsamples = 1\nvalue = [0, 1]"] ;
379 -> 385 ;
386 [label="X[8] <= 4.383\ngini = 0.49\nsamples = 7\nvalue = [4, 3]"] ;
378 -> 386 ;
387 [label="gini = 0.0\nsamples = 4\nvalue = [4, 0]"] ;
386 -> 387 ;
388 [label="gini = 0.0\nsamples = 3\nvalue = [0, 3]"] ;
386 -> 388 ;
389 [label="X[6] <= 16.163\ngini = 0.457\nsamples = 17\nvalue = [11, 6]"] ;
377 -> 389 ;
390 [label="gini = 0.0\nsamples = 2\nvalue = [0, 2]"] ;
389 -> 390 ;
391 [label="X[3] <= 4.567\ngini = 0.391\nsamples = 15\nvalue = [11, 4]"] ;
389 -> 391 ;
392 [label="gini = 0.0\nsamples = 2\nvalue = [0, 2]"] ;
391 -> 392 ;
393 [label="X[1] <= 204.464\ngini = 0.26\nsamples = 13\nvalue = [11, 2]"] ;
391 -> 393 ;
394 [label="gini = 0.0\nsamples = 9\nvalue = [9, 0]"] ;
393 -> 394 ;
395 [label="X[1] <= 207.432\ngini = 0.5\nsamples = 4\nvalue = [2, 2]"] ;
393 -> 395 ;
396 [label="gini = 0.0\nsamples = 2\nvalue = [0, 2]"] ;
395 -> 396 ;
397 [label="gini = 0.0\nsamples = 2\nvalue = [2, 0]"] ;
395 -> 397 ;
398 [label="X[6] <= 12.877\ngini = 0.497\nsamples = 13\nvalue = [6, 7]"] ;
366 -> 398 ;
399 [label="X[6] <= 9.656\ngini = 0.278\nsamples = 6\nvalue = [5, 1]"] ;
398 -> 399 ;
400 [label="gini = 0.0\nsamples = 1\nvalue = [0, 1]"] ;
399 -> 400 ;
401 [label="gini = 0.0\nsamples = 5\nvalue = [5, 0]"] ;
399 -> 401 ;
402 [label="X[8] <= 5.285\ngini = 0.245\nsamples = 7\nvalue = [1, 6]"] ;
398 -> 402 ;
403 [label="gini = 0.0\nsamples = 6\nvalue = [0, 6]"] ;
402 -> 403 ;
404 [label="gini = 0.0\nsamples = 1\nvalue = [1, 0]"] ;
402 -> 404 ;
405 [label="X[5] <= 551.438\ngini = 0.496\nsamples = 570\nvalue = [312, 258]"] ;
343 -> 405 ;
406 [label="X[2] <= 31081.083\ngini = 0.498\nsamples = 528\nvalue = [281, 247]"] ;
405 -> 406 ;
407 [label="X[8] <= 5.611\ngini = 0.495\nsamples = 458\nvalue = [253, 205]"] ;
406 -> 407 ;
408 [label="X[3] <= 8.992\ngini = 0.493\nsamples = 453\nvalue = [253, 200]"] ;
407 -> 408 ;
409 [label="X[4] <= 322.096\ngini = 0.488\nsamples = 408\nvalue = [235, 173]"] ;
408 -> 409 ;
410 [label="X[4] <= 314.115\ngini = 0.5\nsamples = 138\nvalue = [68, 70]"] ;
409 -> 410 ;
411 [label="X[7] <= 74.092\ngini = 0.487\nsamples = 86\nvalue = [50, 36]"] ;
410 -> 411 ;
412 [label="X[5] <= 299.505\ngini = 0.497\nsamples = 61\nvalue = [28, 33]"] ;
411 -> 412 ;
413 [label="gini = 0.0\nsamples = 5\nvalue = [5, 0]"] ;
412 -> 413 ;
414 [label="X[5] <= 360.485\ngini = 0.484\nsamples = 56\nvalue = [23, 33]"] ;
412 -> 414 ;
415 [label="X[0] <= 6.486\ngini = 0.245\nsamples = 14\nvalue = [2, 12]"] ;
414 -> 415 ;
416 [label="gini = 0.0\nsamples = 1\nvalue = [1, 0]"] ;
415 -> 416 ;
417 [label="X[3] <= 6.224\ngini = 0.142\nsamples = 13\nvalue = [1, 12]"] ;
415 -> 417 ;
418 [label="gini = 0.0\nsamples = 1\nvalue = [1, 0]"] ;
417 -> 418 ;
419 [label="gini = 0.0\nsamples = 12\nvalue = [0, 12]"] ;
417 -> 419 ;
420 [label="X[1] <= 209.899\ngini = 0.5\nsamples = 42\nvalue = [21, 21]"] ;
414 -> 420 ;
421 [label="X[7] <= 71.758\ngini = 0.478\nsamples = 33\nvalue = [20, 13]"] ;
420 -> 421 ;
422 [label="X[7] <= 63.214\ngini = 0.444\nsamples = 30\nvalue = [20, 10]"] ;
421 -> 422 ;
423 [label="X[7] <= 61.023\ngini = 0.496\nsamples = 22\nvalue = [12, 10]"] ;
422 -> 423 ;
424 [label="X[2] <= 25103.082\ngini = 0.444\nsamples = 18\nvalue = [12, 6]"] ;
423 -> 424 ;
425 [label="X[2] <= 20094.601\ngini = 0.496\nsamples = 11\nvalue = [5, 6]"] ;
424 -> 425 ;
426 [label="X[7] <= 44.467\ngini = 0.408\nsamples = 7\nvalue = [5, 2]"] ;
425 -> 426 ;
427 [label="gini = 0.0\nsamples = 2\nvalue = [0, 2]"] ;
426 -> 427 ;
428 [label="gini = 0.0\nsamples = 5\nvalue = [5, 0]"] ;
426 -> 428 ;
429 [label="gini = 0.0\nsamples = 4\nvalue = [0, 4]"] ;
425 -> 429 ;
430 [label="gini = 0.0\nsamples = 7\nvalue = [7, 0]"] ;
424 -> 430 ;
431 [label="gini = 0.0\nsamples = 4\nvalue = [0, 4]"] ;
423 -> 431 ;
432 [label="gini = 0.0\nsamples = 8\nvalue = [8, 0]"] ;
422 -> 432 ;
433 [label="gini = 0.0\nsamples = 3\nvalue = [0, 3]"] ;
421 -> 433 ;
434 [label="X[3] <= 6.283\ngini = 0.198\nsamples = 9\nvalue = [1, 8]"] ;
420 -> 434 ;
435 [label="gini = 0.0\nsamples = 1\nvalue = [1, 0]"] ;
434 -> 435 ;
436 [label="gini = 0.0\nsamples = 8\nvalue = [0, 8]"] ;
434 -> 436 ;
437 [label="X[0] <= 6.424\ngini = 0.211\nsamples = 25\nvalue = [22, 3]"] ;
411 -> 437 ;
438 [label="gini = 0.0\nsamples = 2\nvalue = [0, 2]"] ;
437 -> 438 ;
439 [label="X[6] <= 17.227\ngini = 0.083\nsamples = 23\nvalue = [22, 1]"] ;
437 -> 439 ;
440 [label="gini = 0.0\nsamples = 19\nvalue = [19, 0]"] ;
439 -> 440 ;
441 [label="X[2] <= 19278.609\ngini = 0.375\nsamples = 4\nvalue = [3, 1]"] ;
439 -> 441 ;
442 [label="gini = 0.0\nsamples = 1\nvalue = [0, 1]"] ;
441 -> 442 ;
443 [label="gini = 0.0\nsamples = 3\nvalue = [3, 0]"] ;
441 -> 443 ;
444 [label="X[3] <= 8.413\ngini = 0.453\nsamples = 52\nvalue = [18, 34]"] ;
410 -> 444 ;
445 [label="X[6] <= 20.848\ngini = 0.405\nsamples = 46\nvalue = [13, 33]"] ;
444 -> 445 ;
446 [label="X[2] <= 24848.875\ngini = 0.375\nsamples = 44\nvalue = [11, 33]"] ;
445 -> 446 ;
447 [label="X[2] <= 20652.428\ngini = 0.466\nsamples = 27\nvalue = [10, 17]"] ;
446 -> 447 ;
448 [label="X[2] <= 14924.27\ngini = 0.278\nsamples = 18\nvalue = [3, 15]"] ;
447 -> 448 ;
449 [label="X[4] <= 315.021\ngini = 0.444\nsamples = 3\nvalue = [2, 1]"] ;
448 -> 449 ;
450 [label="gini = 0.0\nsamples = 1\nvalue = [0, 1]"] ;
449 -> 450 ;
451 [label="gini = 0.0\nsamples = 2\nvalue = [2, 0]"] ;
449 -> 451 ;
452 [label="X[6] <= 11.334\ngini = 0.124\nsamples = 15\nvalue = [1, 14]"] ;
448 -> 452 ;
453 [label="X[5] <= 372.359\ngini = 0.5\nsamples = 2\nvalue = [1, 1]"] ;
452 -> 453 ;
454 [label="gini = 0.0\nsamples = 1\nvalue = [1, 0]"] ;
453 -> 454 ;
455 [label="gini = 0.0\nsamples = 1\nvalue = [0, 1]"] ;
453 -> 455 ;
456 [label="gini = 0.0\nsamples = 13\nvalue = [0, 13]"] ;
452 -> 456 ;
457 [label="X[4] <= 315.429\ngini = 0.346\nsamples = 9\nvalue = [7, 2]"] ;
447 -> 457 ;
458 [label="gini = 0.0\nsamples = 2\nvalue = [0, 2]"] ;
457 -> 458 ;
459 [label="gini = 0.0\nsamples = 7\nvalue = [7, 0]"] ;
457 -> 459 ;
460 [label="X[4] <= 315.941\ngini = 0.111\nsamples = 17\nvalue = [1, 16]"] ;
446 -> 460 ;
461 [label="X[1] <= 178.738\ngini = 0.5\nsamples = 2\nvalue = [1, 1]"] ;
460 -> 461 ;
462 [label="gini = 0.0\nsamples = 1\nvalue = [0, 1]"] ;
461 -> 462 ;
463 [label="gini = 0.0\nsamples = 1\nvalue = [1, 0]"] ;
461 -> 463 ;
464 [label="gini = 0.0\nsamples = 15\nvalue = [0, 15]"] ;
460 -> 464 ;
465 [label="gini = 0.0\nsamples = 2\nvalue = [2, 0]"] ;
445 -> 465 ;
466 [label="X[1] <= 176.632\ngini = 0.278\nsamples = 6\nvalue = [5, 1]"] ;
444 -> 466 ;
467 [label="gini = 0.0\nsamples = 1\nvalue = [0, 1]"] ;
466 -> 467 ;
468 [label="gini = 0.0\nsamples = 5\nvalue = [5, 0]"] ;
466 -> 468 ;
469 [label="X[3] <= 8.578\ngini = 0.472\nsamples = 270\nvalue = [167, 103]"] ;
409 -> 469 ;
470 [label="X[3] <= 8.451\ngini = 0.48\nsamples = 258\nvalue = [155, 103]"] ;
469 -> 470 ;
471 [label="X[7] <= 45.555\ngini = 0.475\nsamples = 253\nvalue = [155, 98]"] ;
470 -> 471 ;
472 [label="X[0] <= 8.232\ngini = 0.26\nsamples = 26\nvalue = [22, 4]"] ;
471 -> 472 ;
473 [label="X[8] <= 2.168\ngini = 0.211\nsamples = 25\nvalue = [22, 3]"] ;
472 -> 473 ;
474 [label="gini = 0.0\nsamples = 1\nvalue = [0, 1]"] ;
473 -> 474 ;
475 [label="X[8] <= 5.388\ngini = 0.153\nsamples = 24\nvalue = [22, 2]"] ;
473 -> 475 ;
476 [label="X[1] <= 161.902\ngini = 0.087\nsamples = 22\nvalue = [21, 1]"] ;
475 -> 476 ;
477 [label="X[4] <= 331.111\ngini = 0.5\nsamples = 2\nvalue = [1, 1]"] ;
476 -> 477 ;
478 [label="gini = 0.0\nsamples = 1\nvalue = [0, 1]"] ;
477 -> 478 ;
479 [label="gini = 0.0\nsamples = 1\nvalue = [1, 0]"] ;
477 -> 479 ;
480 [label="gini = 0.0\nsamples = 20\nvalue = [20, 0]"] ;
476 -> 480 ;
481 [label="X[8] <= 5.455\ngini = 0.5\nsamples = 2\nvalue = [1, 1]"] ;
475 -> 481 ;
482 [label="gini = 0.0\nsamples = 1\nvalue = [0, 1]"] ;
481 -> 482 ;
483 [label="gini = 0.0\nsamples = 1\nvalue = [1, 0]"] ;
481 -> 483 ;
484 [label="gini = 0.0\nsamples = 1\nvalue = [0, 1]"] ;
472 -> 484 ;
485 [label="X[7] <= 63.573\ngini = 0.485\nsamples = 227\nvalue = [133, 94]"] ;
471 -> 485 ;
486 [label="X[8] <= 4.156\ngini = 0.496\nsamples = 77\nvalue = [35, 42]"] ;
485 -> 486 ;
487 [label="X[0] <= 7.642\ngini = 0.49\nsamples = 42\nvalue = [24, 18]"] ;
486 -> 487 ;
488 [label="X[1] <= 210.087\ngini = 0.408\nsamples = 28\nvalue = [20, 8]"] ;
487 -> 488 ;
489 [label="X[7] <= 48.012\ngini = 0.33\nsamples = 24\nvalue = [19, 5]"] ;
488 -> 489 ;
490 [label="X[4] <= 328.397\ngini = 0.444\nsamples = 3\nvalue = [1, 2]"] ;
489 -> 490 ;
491 [label="gini = 0.0\nsamples = 1\nvalue = [1, 0]"] ;
490 -> 491 ;
492 [label="gini = 0.0\nsamples = 2\nvalue = [0, 2]"] ;
490 -> 492 ;
493 [label="X[5] <= 282.439\ngini = 0.245\nsamples = 21\nvalue = [18, 3]"] ;
489 -> 493 ;
494 [label="gini = 0.0\nsamples = 1\nvalue = [0, 1]"] ;
493 -> 494 ;
495 [label="X[5] <= 528.951\ngini = 0.18\nsamples = 20\nvalue = [18, 2]"] ;
493 -> 495 ;
496 [label="X[8] <= 2.826\ngini = 0.1\nsamples = 19\nvalue = [18, 1]"] ;
495 -> 496 ;
497 [label="X[4] <= 332.725\ngini = 0.444\nsamples = 3\nvalue = [2, 1]"] ;
496 -> 497 ;
498 [label="gini = 0.0\nsamples = 2\nvalue = [2, 0]"] ;
497 -> 498 ;
499 [label="gini = 0.0\nsamples = 1\nvalue = [0, 1]"] ;
497 -> 499 ;
500 [label="gini = 0.0\nsamples = 16\nvalue = [16, 0]"] ;
496 -> 500 ;
501 [label="gini = 0.0\nsamples = 1\nvalue = [0, 1]"] ;
495 -> 501 ;
502 [label="X[1] <= 214.319\ngini = 0.375\nsamples = 4\nvalue = [1, 3]"] ;
488 -> 502 ;
503 [label="gini = 0.0\nsamples = 3\nvalue = [0, 3]"] ;
502 -> 503 ;
504 [label="gini = 0.0\nsamples = 1\nvalue = [1, 0]"] ;
502 -> 504 ;
505 [label="X[5] <= 449.004\ngini = 0.408\nsamples = 14\nvalue = [4, 10]"] ;
487 -> 505 ;
506 [label="X[2] <= 27894.334\ngini = 0.165\nsamples = 11\nvalue = [1, 10]"] ;
505 -> 506 ;
507 [label="gini = 0.0\nsamples = 10\nvalue = [0, 10]"] ;
506 -> 507 ;
508 [label="gini = 0.0\nsamples = 1\nvalue = [1, 0]"] ;
506 -> 508 ;
509 [label="gini = 0.0\nsamples = 3\nvalue = [3, 0]"] ;
505 -> 509 ;
510 [label="X[3] <= 7.703\ngini = 0.431\nsamples = 35\nvalue = [11, 24]"] ;
486 -> 510 ;
511 [label="X[3] <= 7.144\ngini = 0.497\nsamples = 24\nvalue = [11, 13]"] ;
510 -> 511 ;
512 [label="X[3] <= 6.294\ngini = 0.391\nsamples = 15\nvalue = [4, 11]"] ;
511 -> 512 ;
513 [label="X[2] <= 14612.368\ngini = 0.375\nsamples = 4\nvalue = [3, 1]"] ;
512 -> 513 ;
514 [label="gini = 0.0\nsamples = 1\nvalue = [0, 1]"] ;
513 -> 514 ;
515 [label="gini = 0.0\nsamples = 3\nvalue = [3, 0]"] ;
513 -> 515 ;
516 [label="X[6] <= 16.813\ngini = 0.165\nsamples = 11\nvalue = [1, 10]"] ;
512 -> 516 ;
517 [label="gini = 0.0\nsamples = 9\nvalue = [0, 9]"] ;
516 -> 517 ;
518 [label="X[8] <= 4.508\ngini = 0.5\nsamples = 2\nvalue = [1, 1]"] ;
516 -> 518 ;
519 [label="gini = 0.0\nsamples = 1\nvalue = [0, 1]"] ;
518 -> 519 ;
520 [label="gini = 0.0\nsamples = 1\nvalue = [1, 0]"] ;
518 -> 520 ;
521 [label="X[1] <= 190.01\ngini = 0.346\nsamples = 9\nvalue = [7, 2]"] ;
511 -> 521 ;
522 [label="gini = 0.0\nsamples = 6\nvalue = [6, 0]"] ;
521 -> 522 ;
523 [label="X[3] <= 7.204\ngini = 0.444\nsamples = 3\nvalue = [1, 2]"] ;
521 -> 523 ;
524 [label="gini = 0.0\nsamples = 1\nvalue = [1, 0]"] ;
523 -> 524 ;
525 [label="gini = 0.0\nsamples = 2\nvalue = [0, 2]"] ;
523 -> 525 ;
526 [label="gini = 0.0\nsamples = 11\nvalue = [0, 11]"] ;
510 -> 526 ;
527 [label="X[8] <= 3.849\ngini = 0.453\nsamples = 150\nvalue = [98, 52]"] ;
485 -> 527 ;
528 [label="X[4] <= 333.414\ngini = 0.495\nsamples = 80\nvalue = [44, 36]"] ;
527 -> 528 ;
529 [label="X[3] <= 7.073\ngini = 0.33\nsamples = 24\nvalue = [19, 5]"] ;
528 -> 529 ;
530 [label="X[4] <= 329.275\ngini = 0.473\nsamples = 13\nvalue = [8, 5]"] ;
529 -> 530 ;
531 [label="X[4] <= 325.146\ngini = 0.469\nsamples = 8\nvalue = [3, 5]"] ;
530 -> 531 ;
532 [label="gini = 0.0\nsamples = 2\nvalue = [2, 0]"] ;
531 -> 532 ;
533 [label="X[3] <= 6.244\ngini = 0.278\nsamples = 6\nvalue = [1, 5]"] ;
531 -> 533 ;
534 [label="gini = 0.0\nsamples = 1\nvalue = [1, 0]"] ;
533 -> 534 ;
535 [label="gini = 0.0\nsamples = 5\nvalue = [0, 5]"] ;
533 -> 535 ;
536 [label="gini = 0.0\nsamples = 5\nvalue = [5, 0]"] ;
530 -> 536 ;
537 [label="gini = 0.0\nsamples = 11\nvalue = [11, 0]"] ;
529 -> 537 ;
538 [label="X[0] <= 6.549\ngini = 0.494\nsamples = 56\nvalue = [25, 31]"] ;
528 -> 538 ;
539 [label="X[5] <= 348.24\ngini = 0.245\nsamples = 7\nvalue = [6, 1]"] ;
538 -> 539 ;
540 [label="gini = 0.0\nsamples = 1\nvalue = [0, 1]"] ;
539 -> 540 ;
541 [label="gini = 0.0\nsamples = 6\nvalue = [6, 0]"] ;
539 -> 541 ;
542 [label="X[0] <= 8.041\ngini = 0.475\nsamples = 49\nvalue = [19, 30]"] ;
538 -> 542 ;
543 [label="X[6] <= 9.512\ngini = 0.439\nsamples = 43\nvalue = [14, 29]"] ;
542 -> 543 ;
544 [label="X[2] <= 11588.437\ngini = 0.408\nsamples = 7\nvalue = [5, 2]"] ;
543 -> 544 ;
545 [label="gini = 0.0\nsamples = 2\nvalue = [0, 2]"] ;
544 -> 545 ;
546 [label="gini = 0.0\nsamples = 5\nvalue = [5, 0]"] ;
544 -> 546 ;
547 [label="X[2] <= 29969.807\ngini = 0.375\nsamples = 36\nvalue = [9, 27]"] ;
543 -> 547 ;
548 [label="X[3] <= 7.507\ngini = 0.353\nsamples = 35\nvalue = [8, 27]"] ;
547 -> 548 ;
549 [label="X[3] <= 7.227\ngini = 0.434\nsamples = 22\nvalue = [7, 15]"] ;
548 -> 549 ;
550 [label="X[6] <= 20.19\ngini = 0.32\nsamples = 15\nvalue = [3, 12]"] ;
549 -> 550 ;
551 [label="X[8] <= 3.455\ngini = 0.245\nsamples = 14\nvalue = [2, 12]"] ;
550 -> 551 ;
552 [label="gini = 0.0\nsamples = 9\nvalue = [0, 9]"] ;
551 -> 552 ;
553 [label="X[5] <= 392.166\ngini = 0.48\nsamples = 5\nvalue = [2, 3]"] ;
551 -> 553 ;
554 [label="gini = 0.0\nsamples = 2\nvalue = [0, 2]"] ;
553 -> 554 ;
555 [label="X[0] <= 6.894\ngini = 0.444\nsamples = 3\nvalue = [2, 1]"] ;
553 -> 555 ;
556 [label="gini = 0.0\nsamples = 1\nvalue = [0, 1]"] ;
555 -> 556 ;
557 [label="gini = 0.0\nsamples = 2\nvalue = [2, 0]"] ;
555 -> 557 ;
558 [label="gini = 0.0\nsamples = 1\nvalue = [1, 0]"] ;
550 -> 558 ;
559 [label="X[7] <= 75.298\ngini = 0.49\nsamples = 7\nvalue = [4, 3]"] ;
549 -> 559 ;
560 [label="gini = 0.0\nsamples = 3\nvalue = [3, 0]"] ;
559 -> 560 ;
561 [label="X[6] <= 11.723\ngini = 0.375\nsamples = 4\nvalue = [1, 3]"] ;
559 -> 561 ;
562 [label="gini = 0.0\nsamples = 1\nvalue = [1, 0]"] ;
561 -> 562 ;
563 [label="gini = 0.0\nsamples = 3\nvalue = [0, 3]"] ;
561 -> 563 ;
564 [label="X[1] <= 199.981\ngini = 0.142\nsamples = 13\nvalue = [1, 12]"] ;
548 -> 564 ;
565 [label="gini = 0.0\nsamples = 11\nvalue = [0, 11]"] ;
564 -> 565 ;
566 [label="X[3] <= 8.161\ngini = 0.5\nsamples = 2\nvalue = [1, 1]"] ;
564 -> 566 ;
567 [label="gini = 0.0\nsamples = 1\nvalue = [0, 1]"] ;
566 -> 567 ;
568 [label="gini = 0.0\nsamples = 1\nvalue = [1, 0]"] ;
566 -> 568 ;
569 [label="gini = 0.0\nsamples = 1\nvalue = [1, 0]"] ;
547 -> 569 ;
570 [label="X[7] <= 85.518\ngini = 0.278\nsamples = 6\nvalue = [5, 1]"] ;
542 -> 570 ;
571 [label="gini = 0.0\nsamples = 4\nvalue = [4, 0]"] ;
570 -> 571 ;
572 [label="X[5] <= 485.209\ngini = 0.5\nsamples = 2\nvalue = [1, 1]"] ;
570 -> 572 ;
573 [label="gini = 0.0\nsamples = 1\nvalue = [0, 1]"] ;
572 -> 573 ;
574 [label="gini = 0.0\nsamples = 1\nvalue = [1, 0]"] ;
572 -> 574 ;
575 [label="X[1] <= 204.239\ngini = 0.353\nsamples = 70\nvalue = [54, 16]"] ;
527 -> 575 ;
576 [label="X[5] <= 376.989\ngini = 0.233\nsamples = 52\nvalue = [45, 7]"] ;
575 -> 576 ;
577 [label="X[1] <= 180.761\ngini = 0.432\nsamples = 19\nvalue = [13, 6]"] ;
576 -> 577 ;
578 [label="X[3] <= 7.569\ngini = 0.32\nsamples = 5\nvalue = [1, 4]"] ;
577 -> 578 ;
579 [label="gini = 0.0\nsamples = 4\nvalue = [0, 4]"] ;
578 -> 579 ;
580 [label="gini = 0.0\nsamples = 1\nvalue = [1, 0]"] ;
578 -> 580 ;
581 [label="X[5] <= 371.002\ngini = 0.245\nsamples = 14\nvalue = [12, 2]"] ;
577 -> 581 ;
582 [label="X[8] <= 3.911\ngini = 0.142\nsamples = 13\nvalue = [12, 1]"] ;
581 -> 582 ;
583 [label="gini = 0.0\nsamples = 1\nvalue = [0, 1]"] ;
582 -> 583 ;
584 [label="gini = 0.0\nsamples = 12\nvalue = [12, 0]"] ;
582 -> 584 ;
585 [label="gini = 0.0\nsamples = 1\nvalue = [0, 1]"] ;
581 -> 585 ;
586 [label="X[6] <= 9.937\ngini = 0.059\nsamples = 33\nvalue = [32, 1]"] ;
576 -> 586 ;
587 [label="X[7] <= 90.116\ngini = 0.5\nsamples = 2\nvalue = [1, 1]"] ;
586 -> 587 ;
588 [label="gini = 0.0\nsamples = 1\nvalue = [0, 1]"] ;
587 -> 588 ;
589 [label="gini = 0.0\nsamples = 1\nvalue = [1, 0]"] ;
587 -> 589 ;
590 [label="gini = 0.0\nsamples = 31\nvalue = [31, 0]"] ;
586 -> 590 ;
591 [label="X[5] <= 487.6\ngini = 0.5\nsamples = 18\nvalue = [9, 9]"] ;
575 -> 591 ;
592 [label="X[7] <= 68.708\ngini = 0.426\nsamples = 13\nvalue = [9, 4]"] ;
591 -> 592 ;
593 [label="gini = 0.0\nsamples = 3\nvalue = [0, 3]"] ;
592 -> 593 ;
594 [label="X[7] <= 97.365\ngini = 0.18\nsamples = 10\nvalue = [9, 1]"] ;
592 -> 594 ;
595 [label="gini = 0.0\nsamples = 9\nvalue = [9, 0]"] ;
594 -> 595 ;
596 [label="gini = 0.0\nsamples = 1\nvalue = [0, 1]"] ;
594 -> 596 ;
597 [label="gini = 0.0\nsamples = 5\nvalue = [0, 5]"] ;
591 -> 597 ;
598 [label="gini = 0.0\nsamples = 5\nvalue = [0, 5]"] ;
470 -> 598 ;
599 [label="gini = 0.0\nsamples = 12\nvalue = [12, 0]"] ;
469 -> 599 ;
600 [label="X[7] <= 67.826\ngini = 0.48\nsamples = 45\nvalue = [18, 27]"] ;
408 -> 600 ;
601 [label="X[0] <= 8.035\ngini = 0.483\nsamples = 27\nvalue = [16, 11]"] ;
600 -> 601 ;
602 [label="X[6] <= 14.089\ngini = 0.423\nsamples = 23\nvalue = [16, 7]"] ;
601 -> 602 ;
603 [label="X[5] <= 313.646\ngini = 0.142\nsamples = 13\nvalue = [12, 1]"] ;
602 -> 603 ;
604 [label="gini = 0.0\nsamples = 1\nvalue = [0, 1]"] ;
603 -> 604 ;
605 [label="gini = 0.0\nsamples = 12\nvalue = [12, 0]"] ;
603 -> 605 ;
606 [label="X[3] <= 9.738\ngini = 0.48\nsamples = 10\nvalue = [4, 6]"] ;
602 -> 606 ;
607 [label="gini = 0.0\nsamples = 5\nvalue = [0, 5]"] ;
606 -> 607 ;
608 [label="X[4] <= 314.55\ngini = 0.32\nsamples = 5\nvalue = [4, 1]"] ;
606 -> 608 ;
609 [label="gini = 0.0\nsamples = 1\nvalue = [0, 1]"] ;
608 -> 609 ;
610 [label="gini = 0.0\nsamples = 4\nvalue = [4, 0]"] ;
608 -> 610 ;
611 [label="gini = 0.0\nsamples = 4\nvalue = [0, 4]"] ;
601 -> 611 ;
612 [label="X[8] <= 2.792\ngini = 0.198\nsamples = 18\nvalue = [2, 16]"] ;
600 -> 612 ;
613 [label="gini = 0.0\nsamples = 1\nvalue = [1, 0]"] ;
612 -> 613 ;
614 [label="X[7] <= 71.284\ngini = 0.111\nsamples = 17\nvalue = [1, 16]"] ;
612 -> 614 ;
615 [label="X[2] <= 23108.512\ngini = 0.444\nsamples = 3\nvalue = [1, 2]"] ;
614 -> 615 ;
616 [label="gini = 0.0\nsamples = 2\nvalue = [0, 2]"] ;
615 -> 616 ;
617 [label="gini = 0.0\nsamples = 1\nvalue = [1, 0]"] ;
615 -> 617 ;
618 [label="gini = 0.0\nsamples = 14\nvalue = [0, 14]"] ;
614 -> 618 ;
619 [label="gini = 0.0\nsamples = 5\nvalue = [0, 5]"] ;
407 -> 619 ;
620 [label="X[6] <= 13.4\ngini = 0.48\nsamples = 70\nvalue = [28, 42]"] ;
406 -> 620 ;
621 [label="X[3] <= 8.157\ngini = 0.26\nsamples = 26\nvalue = [4, 22]"] ;
620 -> 621 ;
622 [label="X[2] <= 35829.787\ngini = 0.159\nsamples = 23\nvalue = [2, 21]"] ;
621 -> 622 ;
623 [label="gini = 0.0\nsamples = 17\nvalue = [0, 17]"] ;
622 -> 623 ;
624 [label="X[1] <= 191.255\ngini = 0.444\nsamples = 6\nvalue = [2, 4]"] ;
622 -> 624 ;
625 [label="gini = 0.0\nsamples = 3\nvalue = [0, 3]"] ;
624 -> 625 ;
626 [label="X[6] <= 13.0\ngini = 0.444\nsamples = 3\nvalue = [2, 1]"] ;
624 -> 626 ;
627 [label="gini = 0.0\nsamples = 2\nvalue = [2, 0]"] ;
626 -> 627 ;
628 [label="gini = 0.0\nsamples = 1\nvalue = [0, 1]"] ;
626 -> 628 ;
629 [label="X[7] <= 87.922\ngini = 0.444\nsamples = 3\nvalue = [2, 1]"] ;
621 -> 629 ;
630 [label="gini = 0.0\nsamples = 2\nvalue = [2, 0]"] ;
629 -> 630 ;
631 [label="gini = 0.0\nsamples = 1\nvalue = [0, 1]"] ;
629 -> 631 ;
632 [label="X[6] <= 18.582\ngini = 0.496\nsamples = 44\nvalue = [24, 20]"] ;
620 -> 632 ;
633 [label="X[5] <= 530.37\ngini = 0.473\nsamples = 39\nvalue = [24, 15]"] ;
632 -> 633 ;
634 [label="X[0] <= 6.97\ngini = 0.431\nsamples = 35\nvalue = [24, 11]"] ;
633 -> 634 ;
635 [label="X[0] <= 6.617\ngini = 0.48\nsamples = 10\nvalue = [4, 6]"] ;
634 -> 635 ;
636 [label="gini = 0.0\nsamples = 4\nvalue = [4, 0]"] ;
635 -> 636 ;
637 [label="gini = 0.0\nsamples = 6\nvalue = [0, 6]"] ;
635 -> 637 ;
638 [label="X[4] <= 320.181\ngini = 0.32\nsamples = 25\nvalue = [20, 5]"] ;
634 -> 638 ;
639 [label="X[1] <= 189.613\ngini = 0.48\nsamples = 5\nvalue = [2, 3]"] ;
638 -> 639 ;
640 [label="gini = 0.0\nsamples = 2\nvalue = [0, 2]"] ;
639 -> 640 ;
641 [label="X[2] <= 32233.838\ngini = 0.444\nsamples = 3\nvalue = [2, 1]"] ;
639 -> 641 ;
642 [label="gini = 0.0\nsamples = 1\nvalue = [0, 1]"] ;
641 -> 642 ;
643 [label="gini = 0.0\nsamples = 2\nvalue = [2, 0]"] ;
641 -> 643 ;
644 [label="X[8] <= 3.495\ngini = 0.18\nsamples = 20\nvalue = [18, 2]"] ;
638 -> 644 ;
645 [label="X[8] <= 3.356\ngini = 0.444\nsamples = 6\nvalue = [4, 2]"] ;
644 -> 645 ;
646 [label="gini = 0.0\nsamples = 4\nvalue = [4, 0]"] ;
645 -> 646 ;
647 [label="gini = 0.0\nsamples = 2\nvalue = [0, 2]"] ;
645 -> 647 ;
648 [label="gini = 0.0\nsamples = 14\nvalue = [14, 0]"] ;
644 -> 648 ;
649 [label="gini = 0.0\nsamples = 4\nvalue = [0, 4]"] ;
633 -> 649 ;
650 [label="gini = 0.0\nsamples = 5\nvalue = [0, 5]"] ;
632 -> 650 ;
651 [label="X[1] <= 216.281\ngini = 0.387\nsamples = 42\nvalue = [31, 11]"] ;
405 -> 651 ;
652 [label="X[0] <= 6.623\ngini = 0.349\nsamples = 40\nvalue = [31, 9]"] ;
651 -> 652 ;
653 [label="X[2] <= 22671.164\ngini = 0.48\nsamples = 5\nvalue = [2, 3]"] ;
652 -> 653 ;
654 [label="gini = 0.0\nsamples = 3\nvalue = [0, 3]"] ;
653 -> 654 ;
655 [label="gini = 0.0\nsamples = 2\nvalue = [2, 0]"] ;
653 -> 655 ;
656 [label="X[7] <= 70.005\ngini = 0.284\nsamples = 35\nvalue = [29, 6]"] ;
652 -> 656 ;
657 [label="X[1] <= 175.136\ngini = 0.397\nsamples = 22\nvalue = [16, 6]"] ;
656 -> 657 ;
658 [label="gini = 0.0\nsamples = 8\nvalue = [8, 0]"] ;
657 -> 658 ;
659 [label="X[4] <= 331.528\ngini = 0.49\nsamples = 14\nvalue = [8, 6]"] ;
657 -> 659 ;
660 [label="X[1] <= 179.108\ngini = 0.198\nsamples = 9\nvalue = [8, 1]"] ;
659 -> 660 ;
661 [label="gini = 0.0\nsamples = 1\nvalue = [0, 1]"] ;
660 -> 661 ;
662 [label="gini = 0.0\nsamples = 8\nvalue = [8, 0]"] ;
660 -> 662 ;
663 [label="gini = 0.0\nsamples = 5\nvalue = [0, 5]"] ;
659 -> 663 ;
664 [label="gini = 0.0\nsamples = 13\nvalue = [13, 0]"] ;
656 -> 664 ;
665 [label="gini = 0.0\nsamples = 2\nvalue = [0, 2]"] ;
651 -> 665 ;
666 [label="X[0] <= 6.303\ngini = 0.393\nsamples = 160\nvalue = [117, 43]"] ;
342 -> 666 ;
667 [label="gini = 0.0\nsamples = 3\nvalue = [0, 3]"] ;
666 -> 667 ;
668 [label="X[1] <= 235.291\ngini = 0.38\nsamples = 157\nvalue = [117, 40]"] ;
666 -> 668 ;
669 [label="X[5] <= 349.356\ngini = 0.413\nsamples = 137\nvalue = [97, 40]"] ;
668 -> 669 ;
670 [label="X[8] <= 3.871\ngini = 0.492\nsamples = 16\nvalue = [7, 9]"] ;
669 -> 670 ;
671 [label="gini = 0.0\nsamples = 3\nvalue = [3, 0]"] ;
670 -> 671 ;
672 [label="X[7] <= 64.582\ngini = 0.426\nsamples = 13\nvalue = [4, 9]"] ;
670 -> 672 ;
673 [label="X[2] <= 24177.613\ngini = 0.49\nsamples = 7\nvalue = [4, 3]"] ;
672 -> 673 ;
674 [label="gini = 0.0\nsamples = 4\nvalue = [4, 0]"] ;
673 -> 674 ;
675 [label="gini = 0.0\nsamples = 3\nvalue = [0, 3]"] ;
673 -> 675 ;
676 [label="gini = 0.0\nsamples = 6\nvalue = [0, 6]"] ;
672 -> 676 ;
677 [label="X[4] <= 317.977\ngini = 0.381\nsamples = 121\nvalue = [90, 31]"] ;
669 -> 677 ;
678 [label="X[6] <= 11.794\ngini = 0.157\nsamples = 35\nvalue = [32, 3]"] ;
677 -> 678 ;
679 [label="X[0] <= 7.833\ngini = 0.444\nsamples = 3\nvalue = [1, 2]"] ;
678 -> 679 ;
680 [label="gini = 0.0\nsamples = 2\nvalue = [0, 2]"] ;
679 -> 680 ;
681 [label="gini = 0.0\nsamples = 1\nvalue = [1, 0]"] ;
679 -> 681 ;
682 [label="X[2] <= 30851.465\ngini = 0.061\nsamples = 32\nvalue = [31, 1]"] ;
678 -> 682 ;
683 [label="gini = 0.0\nsamples = 30\nvalue = [30, 0]"] ;
682 -> 683 ;
684 [label="X[4] <= 307.297\ngini = 0.5\nsamples = 2\nvalue = [1, 1]"] ;
682 -> 684 ;
685 [label="gini = 0.0\nsamples = 1\nvalue = [0, 1]"] ;
684 -> 685 ;
686 [label="gini = 0.0\nsamples = 1\nvalue = [1, 0]"] ;
684 -> 686 ;
687 [label="X[1] <= 223.962\ngini = 0.439\nsamples = 86\nvalue = [58, 28]"] ;
677 -> 687 ;
688 [label="X[3] <= 8.147\ngini = 0.251\nsamples = 34\nvalue = [29, 5]"] ;
687 -> 688 ;
689 [label="X[1] <= 219.276\ngini = 0.083\nsamples = 23\nvalue = [22, 1]"] ;
688 -> 689 ;
690 [label="X[1] <= 218.989\ngini = 0.444\nsamples = 3\nvalue = [2, 1]"] ;
689 -> 690 ;
691 [label="gini = 0.0\nsamples = 2\nvalue = [2, 0]"] ;
690 -> 691 ;
692 [label="gini = 0.0\nsamples = 1\nvalue = [0, 1]"] ;
690 -> 692 ;
693 [label="gini = 0.0\nsamples = 20\nvalue = [20, 0]"] ;
689 -> 693 ;
694 [label="X[3] <= 8.472\ngini = 0.463\nsamples = 11\nvalue = [7, 4]"] ;
688 -> 694 ;
695 [label="gini = 0.0\nsamples = 2\nvalue = [0, 2]"] ;
694 -> 695 ;
696 [label="X[5] <= 431.92\ngini = 0.346\nsamples = 9\nvalue = [7, 2]"] ;
694 -> 696 ;
697 [label="gini = 0.0\nsamples = 4\nvalue = [4, 0]"] ;
696 -> 697 ;
698 [label="X[5] <= 458.224\ngini = 0.48\nsamples = 5\nvalue = [3, 2]"] ;
696 -> 698 ;
699 [label="gini = 0.0\nsamples = 2\nvalue = [0, 2]"] ;
698 -> 699 ;
700 [label="gini = 0.0\nsamples = 3\nvalue = [3, 0]"] ;
698 -> 700 ;
701 [label="X[8] <= 2.976\ngini = 0.493\nsamples = 52\nvalue = [29, 23]"] ;
687 -> 701 ;
702 [label="gini = 0.0\nsamples = 5\nvalue = [0, 5]"] ;
701 -> 702 ;
703 [label="X[2] <= 17945.48\ngini = 0.473\nsamples = 47\nvalue = [29, 18]"] ;
701 -> 703 ;
704 [label="X[6] <= 14.342\ngini = 0.496\nsamples = 22\nvalue = [10, 12]"] ;
703 -> 704 ;
705 [label="X[1] <= 226.405\ngini = 0.444\nsamples = 12\nvalue = [8, 4]"] ;
704 -> 705 ;
706 [label="gini = 0.0\nsamples = 2\nvalue = [0, 2]"] ;
705 -> 706 ;
707 [label="X[8] <= 3.407\ngini = 0.32\nsamples = 10\nvalue = [8, 2]"] ;
705 -> 707 ;
708 [label="gini = 0.0\nsamples = 1\nvalue = [0, 1]"] ;
707 -> 708 ;
709 [label="X[0] <= 8.177\ngini = 0.198\nsamples = 9\nvalue = [8, 1]"] ;
707 -> 709 ;
710 [label="gini = 0.0\nsamples = 8\nvalue = [8, 0]"] ;
709 -> 710 ;
711 [label="gini = 0.0\nsamples = 1\nvalue = [0, 1]"] ;
709 -> 711 ;
712 [label="X[6] <= 19.587\ngini = 0.32\nsamples = 10\nvalue = [2, 8]"] ;
704 -> 712 ;
713 [label="gini = 0.0\nsamples = 8\nvalue = [0, 8]"] ;
712 -> 713 ;
714 [label="gini = 0.0\nsamples = 2\nvalue = [2, 0]"] ;
712 -> 714 ;
715 [label="X[5] <= 385.955\ngini = 0.365\nsamples = 25\nvalue = [19, 6]"] ;
703 -> 715 ;
716 [label="gini = 0.0\nsamples = 2\nvalue = [0, 2]"] ;
715 -> 716 ;
717 [label="X[6] <= 18.156\ngini = 0.287\nsamples = 23\nvalue = [19, 4]"] ;
715 -> 717 ;
718 [label="X[8] <= 4.89\ngini = 0.172\nsamples = 21\nvalue = [19, 2]"] ;
717 -> 718 ;
719 [label="X[7] <= 33.024\ngini = 0.095\nsamples = 20\nvalue = [19, 1]"] ;
718 -> 719 ;
720 [label="X[3] <= 8.014\ngini = 0.5\nsamples = 2\nvalue = [1, 1]"] ;
719 -> 720 ;
721 [label="gini = 0.0\nsamples = 1\nvalue = [1, 0]"] ;
720 -> 721 ;
722 [label="gini = 0.0\nsamples = 1\nvalue = [0, 1]"] ;
720 -> 722 ;
723 [label="gini = 0.0\nsamples = 18\nvalue = [18, 0]"] ;
719 -> 723 ;
724 [label="gini = 0.0\nsamples = 1\nvalue = [0, 1]"] ;
718 -> 724 ;
725 [label="gini = 0.0\nsamples = 2\nvalue = [0, 2]"] ;
717 -> 725 ;
726 [label="gini = 0.0\nsamples = 20\nvalue = [20, 0]"] ;
668 -> 726 ;
727 [label="X[1] <= 234.374\ngini = 0.401\nsamples = 349\nvalue = [252, 97]"] ;
219 -> 727 ;
728 [label="X[4] <= 335.416\ngini = 0.395\nsamples = 344\nvalue = [251, 93]"] ;
727 -> 728 ;
729 [label="X[5] <= 289.158\ngini = 0.071\nsamples = 27\nvalue = [26, 1]"] ;
728 -> 729 ;
730 [label="gini = 0.0\nsamples = 1\nvalue = [0, 1]"] ;
729 -> 730 ;
731 [label="gini = 0.0\nsamples = 26\nvalue = [26, 0]"] ;
729 -> 731 ;
732 [label="X[1] <= 157.432\ngini = 0.412\nsamples = 317\nvalue = [225, 92]"] ;
728 -> 732 ;
733 [label="X[3] <= 8.217\ngini = 0.5\nsamples = 20\nvalue = [10, 10]"] ;
732 -> 733 ;
734 [label="X[7] <= 55.422\ngini = 0.459\nsamples = 14\nvalue = [5, 9]"] ;
733 -> 734 ;
735 [label="X[6] <= 13.903\ngini = 0.32\nsamples = 5\nvalue = [4, 1]"] ;
734 -> 735 ;
736 [label="gini = 0.0\nsamples = 1\nvalue = [0, 1]"] ;
735 -> 736 ;
737 [label="gini = 0.0\nsamples = 4\nvalue = [4, 0]"] ;
735 -> 737 ;
738 [label="X[0] <= 5.088\ngini = 0.198\nsamples = 9\nvalue = [1, 8]"] ;
734 -> 738 ;
739 [label="gini = 0.0\nsamples = 1\nvalue = [1, 0]"] ;
738 -> 739 ;
740 [label="gini = 0.0\nsamples = 8\nvalue = [0, 8]"] ;
738 -> 740 ;
741 [label="X[7] <= 36.939\ngini = 0.278\nsamples = 6\nvalue = [5, 1]"] ;
733 -> 741 ;
742 [label="gini = 0.0\nsamples = 1\nvalue = [0, 1]"] ;
741 -> 742 ;
743 [label="gini = 0.0\nsamples = 5\nvalue = [5, 0]"] ;
741 -> 743 ;
744 [label="X[8] <= 3.626\ngini = 0.4\nsamples = 297\nvalue = [215, 82]"] ;
732 -> 744 ;
745 [label="X[4] <= 335.625\ngini = 0.315\nsamples = 102\nvalue = [82, 20]"] ;
744 -> 745 ;
746 [label="gini = 0.0\nsamples = 2\nvalue = [0, 2]"] ;
745 -> 746 ;
747 [label="X[4] <= 346.504\ngini = 0.295\nsamples = 100\nvalue = [82, 18]"] ;
745 -> 747 ;
748 [label="X[1] <= 218.061\ngini = 0.18\nsamples = 60\nvalue = [54, 6]"] ;
747 -> 748 ;
749 [label="X[2] <= 17078.579\ngini = 0.103\nsamples = 55\nvalue = [52, 3]"] ;
748 -> 749 ;
750 [label="X[1] <= 206.833\ngini = 0.32\nsamples = 15\nvalue = [12, 3]"] ;
749 -> 750 ;
751 [label="X[4] <= 338.706\ngini = 0.142\nsamples = 13\nvalue = [12, 1]"] ;
750 -> 751 ;
752 [label="gini = 0.0\nsamples = 1\nvalue = [0, 1]"] ;
751 -> 752 ;
753 [label="gini = 0.0\nsamples = 12\nvalue = [12, 0]"] ;
751 -> 753 ;
754 [label="gini = 0.0\nsamples = 2\nvalue = [0, 2]"] ;
750 -> 754 ;
755 [label="gini = 0.0\nsamples = 40\nvalue = [40, 0]"] ;
749 -> 755 ;
756 [label="X[2] <= 29325.148\ngini = 0.48\nsamples = 5\nvalue = [2, 3]"] ;
748 -> 756 ;
757 [label="gini = 0.0\nsamples = 3\nvalue = [0, 3]"] ;
756 -> 757 ;
758 [label="gini = 0.0\nsamples = 2\nvalue = [2, 0]"] ;
756 -> 758 ;
759 [label="X[3] <= 5.967\ngini = 0.42\nsamples = 40\nvalue = [28, 12]"] ;
747 -> 759 ;
760 [label="X[8] <= 2.864\ngini = 0.408\nsamples = 7\nvalue = [2, 5]"] ;
759 -> 760 ;
761 [label="X[5] <= 368.518\ngini = 0.444\nsamples = 3\nvalue = [2, 1]"] ;
760 -> 761 ;
762 [label="gini = 0.0\nsamples = 1\nvalue = [0, 1]"] ;
761 -> 762 ;
763 [label="gini = 0.0\nsamples = 2\nvalue = [2, 0]"] ;
761 -> 763 ;
764 [label="gini = 0.0\nsamples = 4\nvalue = [0, 4]"] ;
760 -> 764 ;
765 [label="X[5] <= 330.019\ngini = 0.334\nsamples = 33\nvalue = [26, 7]"] ;
759 -> 765 ;
766 [label="gini = 0.0\nsamples = 1\nvalue = [0, 1]"] ;
765 -> 766 ;
767 [label="X[1] <= 163.783\ngini = 0.305\nsamples = 32\nvalue = [26, 6]"] ;
765 -> 767 ;
768 [label="gini = 0.0\nsamples = 1\nvalue = [0, 1]"] ;
767 -> 768 ;
769 [label="X[8] <= 3.302\ngini = 0.271\nsamples = 31\nvalue = [26, 5]"] ;
767 -> 769 ;
770 [label="X[4] <= 350.557\ngini = 0.375\nsamples = 20\nvalue = [15, 5]"] ;
769 -> 770 ;
771 [label="X[8] <= 3.261\ngini = 0.153\nsamples = 12\nvalue = [11, 1]"] ;
770 -> 771 ;
772 [label="gini = 0.0\nsamples = 11\nvalue = [11, 0]"] ;
771 -> 772 ;
773 [label="gini = 0.0\nsamples = 1\nvalue = [0, 1]"] ;
771 -> 773 ;
774 [label="X[5] <= 392.874\ngini = 0.5\nsamples = 8\nvalue = [4, 4]"] ;
770 -> 774 ;
775 [label="gini = 0.0\nsamples = 3\nvalue = [3, 0]"] ;
774 -> 775 ;
776 [label="X[0] <= 5.433\ngini = 0.32\nsamples = 5\nvalue = [1, 4]"] ;
774 -> 776 ;
777 [label="gini = 0.0\nsamples = 1\nvalue = [1, 0]"] ;
776 -> 777 ;
778 [label="gini = 0.0\nsamples = 4\nvalue = [0, 4]"] ;
776 -> 778 ;
779 [label="gini = 0.0\nsamples = 11\nvalue = [11, 0]"] ;
769 -> 779 ;
780 [label="X[8] <= 3.805\ngini = 0.434\nsamples = 195\nvalue = [133, 62]"] ;
744 -> 780 ;
781 [label="X[0] <= 6.546\ngini = 0.5\nsamples = 28\nvalue = [14, 14]"] ;
780 -> 781 ;
782 [label="X[2] <= 16502.678\ngini = 0.219\nsamples = 8\nvalue = [1, 7]"] ;
781 -> 782 ;
783 [label="gini = 0.0\nsamples = 1\nvalue = [1, 0]"] ;
782 -> 783 ;
784 [label="gini = 0.0\nsamples = 7\nvalue = [0, 7]"] ;
782 -> 784 ;
785 [label="X[7] <= 87.676\ngini = 0.455\nsamples = 20\nvalue = [13, 7]"] ;
781 -> 785 ;
786 [label="X[0] <= 7.465\ngini = 0.36\nsamples = 17\nvalue = [13, 4]"] ;
785 -> 786 ;
787 [label="gini = 0.0\nsamples = 11\nvalue = [11, 0]"] ;
786 -> 787 ;
788 [label="X[4] <= 339.335\ngini = 0.444\nsamples = 6\nvalue = [2, 4]"] ;
786 -> 788 ;
789 [label="gini = 0.0\nsamples = 3\nvalue = [0, 3]"] ;
788 -> 789 ;
790 [label="X[5] <= 486.802\ngini = 0.444\nsamples = 3\nvalue = [2, 1]"] ;
788 -> 790 ;
791 [label="gini = 0.0\nsamples = 2\nvalue = [2, 0]"] ;
790 -> 791 ;
792 [label="gini = 0.0\nsamples = 1\nvalue = [0, 1]"] ;
790 -> 792 ;
793 [label="gini = 0.0\nsamples = 3\nvalue = [0, 3]"] ;
785 -> 793 ;
794 [label="X[7] <= 85.984\ngini = 0.41\nsamples = 167\nvalue = [119, 48]"] ;
780 -> 794 ;
795 [label="X[0] <= 6.629\ngini = 0.429\nsamples = 154\nvalue = [106, 48]"] ;
794 -> 795 ;
796 [label="X[0] <= 6.261\ngini = 0.316\nsamples = 56\nvalue = [45, 11]"] ;
795 -> 796 ;
797 [label="X[1] <= 211.524\ngini = 0.405\nsamples = 39\nvalue = [28, 11]"] ;
796 -> 797 ;
798 [label="X[6] <= 14.782\ngini = 0.353\nsamples = 35\nvalue = [27, 8]"] ;
797 -> 798 ;
799 [label="X[2] <= 12780.768\ngini = 0.111\nsamples = 17\nvalue = [16, 1]"] ;
798 -> 799 ;
800 [label="X[4] <= 345.545\ngini = 0.5\nsamples = 2\nvalue = [1, 1]"] ;
799 -> 800 ;
801 [label="gini = 0.0\nsamples = 1\nvalue = [1, 0]"] ;
800 -> 801 ;
802 [label="gini = 0.0\nsamples = 1\nvalue = [0, 1]"] ;
800 -> 802 ;
803 [label="gini = 0.0\nsamples = 15\nvalue = [15, 0]"] ;
799 -> 803 ;
804 [label="X[3] <= 6.042\ngini = 0.475\nsamples = 18\nvalue = [11, 7]"] ;
798 -> 804 ;
805 [label="gini = 0.0\nsamples = 3\nvalue = [0, 3]"] ;
804 -> 805 ;
806 [label="X[3] <= 7.744\ngini = 0.391\nsamples = 15\nvalue = [11, 4]"] ;
804 -> 806 ;
807 [label="gini = 0.0\nsamples = 8\nvalue = [8, 0]"] ;
806 -> 807 ;
808 [label="X[2] <= 23811.955\ngini = 0.49\nsamples = 7\nvalue = [3, 4]"] ;
806 -> 808 ;
809 [label="gini = 0.0\nsamples = 3\nvalue = [0, 3]"] ;
808 -> 809 ;
810 [label="X[6] <= 15.233\ngini = 0.375\nsamples = 4\nvalue = [3, 1]"] ;
808 -> 810 ;
811 [label="gini = 0.0\nsamples = 1\nvalue = [0, 1]"] ;
810 -> 811 ;
812 [label="gini = 0.0\nsamples = 3\nvalue = [3, 0]"] ;
810 -> 812 ;
813 [label="X[3] <= 8.536\ngini = 0.375\nsamples = 4\nvalue = [1, 3]"] ;
797 -> 813 ;
814 [label="gini = 0.0\nsamples = 3\nvalue = [0, 3]"] ;
813 -> 814 ;
815 [label="gini = 0.0\nsamples = 1\nvalue = [1, 0]"] ;
813 -> 815 ;
816 [label="gini = 0.0\nsamples = 17\nvalue = [17, 0]"] ;
796 -> 816 ;
817 [label="X[3] <= 7.763\ngini = 0.47\nsamples = 98\nvalue = [61, 37]"] ;
795 -> 817 ;
818 [label="X[4] <= 348.029\ngini = 0.412\nsamples = 69\nvalue = [49, 20]"] ;
817 -> 818 ;
819 [label="X[4] <= 337.357\ngini = 0.334\nsamples = 52\nvalue = [41, 11]"] ;
818 -> 819 ;
820 [label="X[4] <= 336.824\ngini = 0.486\nsamples = 12\nvalue = [5, 7]"] ;
819 -> 820 ;
821 [label="X[7] <= 79.912\ngini = 0.408\nsamples = 7\nvalue = [5, 2]"] ;
820 -> 821 ;
822 [label="gini = 0.0\nsamples = 5\nvalue = [5, 0]"] ;
821 -> 822 ;
823 [label="gini = 0.0\nsamples = 2\nvalue = [0, 2]"] ;
821 -> 823 ;
824 [label="gini = 0.0\nsamples = 5\nvalue = [0, 5]"] ;
820 -> 824 ;
825 [label="X[0] <= 6.64\ngini = 0.18\nsamples = 40\nvalue = [36, 4]"] ;
819 -> 825 ;
826 [label="gini = 0.0\nsamples = 1\nvalue = [0, 1]"] ;
825 -> 826 ;
827 [label="X[7] <= 85.334\ngini = 0.142\nsamples = 39\nvalue = [36, 3]"] ;
825 -> 827 ;
828 [label="X[7] <= 33.867\ngini = 0.1\nsamples = 38\nvalue = [36, 2]"] ;
827 -> 828 ;
829 [label="X[3] <= 7.083\ngini = 0.5\nsamples = 2\nvalue = [1, 1]"] ;
828 -> 829 ;
830 [label="gini = 0.0\nsamples = 1\nvalue = [0, 1]"] ;
829 -> 830 ;
831 [label="gini = 0.0\nsamples = 1\nvalue = [1, 0]"] ;
829 -> 831 ;
832 [label="X[4] <= 346.557\ngini = 0.054\nsamples = 36\nvalue = [35, 1]"] ;
828 -> 832 ;
833 [label="gini = 0.0\nsamples = 32\nvalue = [32, 0]"] ;
832 -> 833 ;
834 [label="X[5] <= 448.99\ngini = 0.375\nsamples = 4\nvalue = [3, 1]"] ;
832 -> 834 ;
835 [label="gini = 0.0\nsamples = 3\nvalue = [3, 0]"] ;
834 -> 835 ;
836 [label="gini = 0.0\nsamples = 1\nvalue = [0, 1]"] ;
834 -> 836 ;
837 [label="gini = 0.0\nsamples = 1\nvalue = [0, 1]"] ;
827 -> 837 ;
838 [label="X[7] <= 57.936\ngini = 0.498\nsamples = 17\nvalue = [8, 9]"] ;
818 -> 838 ;
839 [label="gini = 0.0\nsamples = 5\nvalue = [5, 0]"] ;
838 -> 839 ;
840 [label="X[7] <= 82.006\ngini = 0.375\nsamples = 12\nvalue = [3, 9]"] ;
838 -> 840 ;
841 [label="X[3] <= 5.106\ngini = 0.18\nsamples = 10\nvalue = [1, 9]"] ;
840 -> 841 ;
842 [label="gini = 0.0\nsamples = 1\nvalue = [1, 0]"] ;
841 -> 842 ;
843 [label="gini = 0.0\nsamples = 9\nvalue = [0, 9]"] ;
841 -> 843 ;
844 [label="gini = 0.0\nsamples = 2\nvalue = [2, 0]"] ;
840 -> 844 ;
845 [label="X[4] <= 341.038\ngini = 0.485\nsamples = 29\nvalue = [12, 17]"] ;
817 -> 845 ;
846 [label="gini = 0.0\nsamples = 6\nvalue = [0, 6]"] ;
845 -> 846 ;
847 [label="X[8] <= 5.207\ngini = 0.499\nsamples = 23\nvalue = [12, 11]"] ;
845 -> 847 ;
848 [label="X[6] <= 18.474\ngini = 0.465\nsamples = 19\nvalue = [12, 7]"] ;
847 -> 848 ;
849 [label="X[6] <= 12.594\ngini = 0.415\nsamples = 17\nvalue = [12, 5]"] ;
848 -> 849 ;
850 [label="X[1] <= 200.855\ngini = 0.5\nsamples = 8\nvalue = [4, 4]"] ;
849 -> 850 ;
851 [label="X[6] <= 12.066\ngini = 0.32\nsamples = 5\nvalue = [4, 1]"] ;
850 -> 851 ;
852 [label="gini = 0.0\nsamples = 4\nvalue = [4, 0]"] ;
851 -> 852 ;
853 [label="gini = 0.0\nsamples = 1\nvalue = [0, 1]"] ;
851 -> 853 ;
854 [label="gini = 0.0\nsamples = 3\nvalue = [0, 3]"] ;
850 -> 854 ;
855 [label="X[0] <= 7.647\ngini = 0.198\nsamples = 9\nvalue = [8, 1]"] ;
849 -> 855 ;
856 [label="gini = 0.0\nsamples = 7\nvalue = [7, 0]"] ;
855 -> 856 ;
857 [label="X[2] <= 26323.675\ngini = 0.5\nsamples = 2\nvalue = [1, 1]"] ;
855 -> 857 ;
858 [label="gini = 0.0\nsamples = 1\nvalue = [0, 1]"] ;
857 -> 858 ;
859 [label="gini = 0.0\nsamples = 1\nvalue = [1, 0]"] ;
857 -> 859 ;
860 [label="gini = 0.0\nsamples = 2\nvalue = [0, 2]"] ;
848 -> 860 ;
861 [label="gini = 0.0\nsamples = 4\nvalue = [0, 4]"] ;
847 -> 861 ;
862 [label="gini = 0.0\nsamples = 13\nvalue = [13, 0]"] ;
794 -> 862 ;
863 [label="X[6] <= 9.076\ngini = 0.32\nsamples = 5\nvalue = [1, 4]"] ;
727 -> 863 ;
864 [label="gini = 0.0\nsamples = 1\nvalue = [1, 0]"] ;
863 -> 864 ;
865 [label="gini = 0.0\nsamples = 4\nvalue = [0, 4]"] ;
863 -> 865 ;
866 [label="X[0] <= 5.953\ngini = 0.5\nsamples = 100\nvalue = [51, 49]"] ;
218 -> 866 ;
867 [label="X[7] <= 37.233\ngini = 0.266\nsamples = 19\nvalue = [3, 16]"] ;
866 -> 867 ;
868 [label="gini = 0.0\nsamples = 2\nvalue = [2, 0]"] ;
867 -> 868 ;
869 [label="X[8] <= 3.025\ngini = 0.111\nsamples = 17\nvalue = [1, 16]"] ;
867 -> 869 ;
870 [label="X[2] <= 14263.855\ngini = 0.5\nsamples = 2\nvalue = [1, 1]"] ;
869 -> 870 ;
871 [label="gini = 0.0\nsamples = 1\nvalue = [0, 1]"] ;
870 -> 871 ;
872 [label="gini = 0.0\nsamples = 1\nvalue = [1, 0]"] ;
870 -> 872 ;
873 [label="gini = 0.0\nsamples = 15\nvalue = [0, 15]"] ;
869 -> 873 ;
874 [label="X[7] <= 73.263\ngini = 0.483\nsamples = 81\nvalue = [48, 33]"] ;
866 -> 874 ;
875 [label="X[5] <= 516.355\ngini = 0.39\nsamples = 49\nvalue = [36, 13]"] ;
874 -> 875 ;
876 [label="X[5] <= 324.885\ngini = 0.308\nsamples = 42\nvalue = [34, 8]"] ;
875 -> 876 ;
877 [label="gini = 0.0\nsamples = 2\nvalue = [0, 2]"] ;
876 -> 877 ;
878 [label="X[8] <= 2.367\ngini = 0.255\nsamples = 40\nvalue = [34, 6]"] ;
876 -> 878 ;
879 [label="gini = 0.0\nsamples = 1\nvalue = [0, 1]"] ;
878 -> 879 ;
880 [label="X[2] <= 23046.781\ngini = 0.224\nsamples = 39\nvalue = [34, 5]"] ;
878 -> 880 ;
881 [label="gini = 0.0\nsamples = 23\nvalue = [23, 0]"] ;
880 -> 881 ;
882 [label="X[6] <= 13.312\ngini = 0.43\nsamples = 16\nvalue = [11, 5]"] ;
880 -> 882 ;
883 [label="gini = 0.0\nsamples = 3\nvalue = [0, 3]"] ;
882 -> 883 ;
884 [label="X[6] <= 17.034\ngini = 0.26\nsamples = 13\nvalue = [11, 2]"] ;
882 -> 884 ;
885 [label="gini = 0.0\nsamples = 10\nvalue = [10, 0]"] ;
884 -> 885 ;
886 [label="X[8] <= 4.933\ngini = 0.444\nsamples = 3\nvalue = [1, 2]"] ;
884 -> 886 ;
887 [label="gini = 0.0\nsamples = 2\nvalue = [0, 2]"] ;
886 -> 887 ;
888 [label="gini = 0.0\nsamples = 1\nvalue = [1, 0]"] ;
886 -> 888 ;
889 [label="X[1] <= 262.628\ngini = 0.408\nsamples = 7\nvalue = [2, 5]"] ;
875 -> 889 ;
890 [label="gini = 0.0\nsamples = 5\nvalue = [0, 5]"] ;
889 -> 890 ;
891 [label="gini = 0.0\nsamples = 2\nvalue = [2, 0]"] ;
889 -> 891 ;
892 [label="X[8] <= 3.814\ngini = 0.469\nsamples = 32\nvalue = [12, 20]"] ;
874 -> 892 ;
893 [label="X[0] <= 6.457\ngini = 0.444\nsamples = 12\nvalue = [8, 4]"] ;
892 -> 893 ;
894 [label="gini = 0.0\nsamples = 2\nvalue = [0, 2]"] ;
893 -> 894 ;
895 [label="X[0] <= 7.546\ngini = 0.32\nsamples = 10\nvalue = [8, 2]"] ;
893 -> 895 ;
896 [label="gini = 0.0\nsamples = 8\nvalue = [8, 0]"] ;
895 -> 896 ;
897 [label="gini = 0.0\nsamples = 2\nvalue = [0, 2]"] ;
895 -> 897 ;
898 [label="X[0] <= 6.163\ngini = 0.32\nsamples = 20\nvalue = [4, 16]"] ;
892 -> 898 ;
899 [label="gini = 0.0\nsamples = 2\nvalue = [2, 0]"] ;
898 -> 899 ;
900 [label="X[3] <= 11.184\ngini = 0.198\nsamples = 18\nvalue = [2, 16]"] ;
898 -> 900 ;
901 [label="X[5] <= 276.896\ngini = 0.111\nsamples = 17\nvalue = [1, 16]"] ;
900 -> 901 ;
902 [label="X[4] <= 332.042\ngini = 0.5\nsamples = 2\nvalue = [1, 1]"] ;
901 -> 902 ;
903 [label="gini = 0.0\nsamples = 1\nvalue = [1, 0]"] ;
902 -> 903 ;
904 [label="gini = 0.0\nsamples = 1\nvalue = [0, 1]"] ;
902 -> 904 ;
905 [label="gini = 0.0\nsamples = 15\nvalue = [0, 15]"] ;
901 -> 905 ;
906 [label="gini = 0.0\nsamples = 1\nvalue = [1, 0]"] ;
900 -> 906 ;
907 [label="gini = 0.0\nsamples = 5\nvalue = [0, 5]"] ;
217 -> 907 ;
908 [label="X[1] <= 212.032\ngini = 0.497\nsamples = 397\nvalue = [214, 183]"] ;
216 -> 908 ;
909 [label="X[0] <= 7.908\ngini = 0.473\nsamples = 282\nvalue = [174, 108]"] ;
908 -> 909 ;
910 [label="X[7] <= 35.461\ngini = 0.486\nsamples = 254\nvalue = [148, 106]"] ;
909 -> 910 ;
911 [label="X[0] <= 7.422\ngini = 0.298\nsamples = 11\nvalue = [2, 9]"] ;
910 -> 911 ;
912 [label="X[4] <= 384.247\ngini = 0.18\nsamples = 10\nvalue = [1, 9]"] ;
911 -> 912 ;
913 [label="gini = 0.0\nsamples = 9\nvalue = [0, 9]"] ;
912 -> 913 ;
914 [label="gini = 0.0\nsamples = 1\nvalue = [1, 0]"] ;
912 -> 914 ;
915 [label="gini = 0.0\nsamples = 1\nvalue = [1, 0]"] ;
911 -> 915 ;
916 [label="X[5] <= 353.962\ngini = 0.48\nsamples = 243\nvalue = [146, 97]"] ;
910 -> 916 ;
917 [label="X[2] <= 14934.735\ngini = 0.492\nsamples = 48\nvalue = [21, 27]"] ;
916 -> 917 ;
918 [label="gini = 0.0\nsamples = 8\nvalue = [0, 8]"] ;
917 -> 918 ;
919 [label="X[3] <= 6.268\ngini = 0.499\nsamples = 40\nvalue = [21, 19]"] ;
917 -> 919 ;
920 [label="X[0] <= 7.378\ngini = 0.355\nsamples = 13\nvalue = [3, 10]"] ;
919 -> 920 ;
921 [label="X[2] <= 17806.663\ngini = 0.18\nsamples = 10\nvalue = [1, 9]"] ;
920 -> 921 ;
922 [label="gini = 0.0\nsamples = 1\nvalue = [1, 0]"] ;
921 -> 922 ;
923 [label="gini = 0.0\nsamples = 9\nvalue = [0, 9]"] ;
921 -> 923 ;
924 [label="X[5] <= 326.164\ngini = 0.444\nsamples = 3\nvalue = [2, 1]"] ;
920 -> 924 ;
925 [label="gini = 0.0\nsamples = 2\nvalue = [2, 0]"] ;
924 -> 925 ;
926 [label="gini = 0.0\nsamples = 1\nvalue = [0, 1]"] ;
924 -> 926 ;
927 [label="X[7] <= 66.067\ngini = 0.444\nsamples = 27\nvalue = [18, 9]"] ;
919 -> 927 ;
928 [label="X[0] <= 6.005\ngini = 0.49\nsamples = 14\nvalue = [6, 8]"] ;
927 -> 928 ;
929 [label="gini = 0.0\nsamples = 4\nvalue = [4, 0]"] ;
928 -> 929 ;
930 [label="X[2] <= 19105.441\ngini = 0.32\nsamples = 10\nvalue = [2, 8]"] ;
928 -> 930 ;
931 [label="X[4] <= 365.768\ngini = 0.444\nsamples = 3\nvalue = [2, 1]"] ;
930 -> 931 ;
932 [label="gini = 0.0\nsamples = 2\nvalue = [2, 0]"] ;
931 -> 932 ;
933 [label="gini = 0.0\nsamples = 1\nvalue = [0, 1]"] ;
931 -> 933 ;
934 [label="gini = 0.0\nsamples = 7\nvalue = [0, 7]"] ;
930 -> 934 ;
935 [label="X[5] <= 232.696\ngini = 0.142\nsamples = 13\nvalue = [12, 1]"] ;
927 -> 935 ;
936 [label="gini = 0.0\nsamples = 1\nvalue = [0, 1]"] ;
935 -> 936 ;
937 [label="gini = 0.0\nsamples = 12\nvalue = [12, 0]"] ;
935 -> 937 ;
938 [label="X[5] <= 397.489\ngini = 0.46\nsamples = 195\nvalue = [125, 70]"] ;
916 -> 938 ;
939 [label="X[3] <= 6.394\ngini = 0.311\nsamples = 52\nvalue = [42, 10]"] ;
938 -> 939 ;
940 [label="X[7] <= 72.493\ngini = 0.444\nsamples = 9\nvalue = [3, 6]"] ;
939 -> 940 ;
941 [label="gini = 0.0\nsamples = 5\nvalue = [0, 5]"] ;
940 -> 941 ;
942 [label="X[0] <= 6.766\ngini = 0.375\nsamples = 4\nvalue = [3, 1]"] ;
940 -> 942 ;
943 [label="gini = 0.0\nsamples = 1\nvalue = [0, 1]"] ;
942 -> 943 ;
944 [label="gini = 0.0\nsamples = 3\nvalue = [3, 0]"] ;
942 -> 944 ;
945 [label="X[0] <= 6.476\ngini = 0.169\nsamples = 43\nvalue = [39, 4]"] ;
939 -> 945 ;
946 [label="X[0] <= 6.144\ngini = 0.408\nsamples = 14\nvalue = [10, 4]"] ;
945 -> 946 ;
947 [label="X[7] <= 98.407\ngini = 0.18\nsamples = 10\nvalue = [9, 1]"] ;
946 -> 947 ;
948 [label="gini = 0.0\nsamples = 9\nvalue = [9, 0]"] ;
947 -> 948 ;
949 [label="gini = 0.0\nsamples = 1\nvalue = [0, 1]"] ;
947 -> 949 ;
950 [label="X[2] <= 17728.152\ngini = 0.375\nsamples = 4\nvalue = [1, 3]"] ;
946 -> 950 ;
951 [label="gini = 0.0\nsamples = 1\nvalue = [1, 0]"] ;
950 -> 951 ;
952 [label="gini = 0.0\nsamples = 3\nvalue = [0, 3]"] ;
950 -> 952 ;
953 [label="gini = 0.0\nsamples = 29\nvalue = [29, 0]"] ;
945 -> 953 ;
954 [label="X[6] <= 11.954\ngini = 0.487\nsamples = 143\nvalue = [83, 60]"] ;
938 -> 954 ;
955 [label="X[5] <= 414.977\ngini = 0.357\nsamples = 43\nvalue = [33, 10]"] ;
954 -> 955 ;
956 [label="X[5] <= 403.773\ngini = 0.408\nsamples = 7\nvalue = [2, 5]"] ;
955 -> 956 ;
957 [label="X[4] <= 367.816\ngini = 0.444\nsamples = 3\nvalue = [2, 1]"] ;
956 -> 957 ;
958 [label="gini = 0.0\nsamples = 2\nvalue = [2, 0]"] ;
957 -> 958 ;
959 [label="gini = 0.0\nsamples = 1\nvalue = [0, 1]"] ;
957 -> 959 ;
960 [label="gini = 0.0\nsamples = 4\nvalue = [0, 4]"] ;
956 -> 960 ;
961 [label="X[7] <= 78.529\ngini = 0.239\nsamples = 36\nvalue = [31, 5]"] ;
955 -> 961 ;
962 [label="X[1] <= 201.075\ngini = 0.069\nsamples = 28\nvalue = [27, 1]"] ;
961 -> 962 ;
963 [label="gini = 0.0\nsamples = 23\nvalue = [23, 0]"] ;
962 -> 963 ;
964 [label="X[1] <= 203.662\ngini = 0.32\nsamples = 5\nvalue = [4, 1]"] ;
962 -> 964 ;
965 [label="gini = 0.0\nsamples = 1\nvalue = [0, 1]"] ;
964 -> 965 ;
966 [label="gini = 0.0\nsamples = 4\nvalue = [4, 0]"] ;
964 -> 966 ;
967 [label="X[1] <= 192.978\ngini = 0.5\nsamples = 8\nvalue = [4, 4]"] ;
961 -> 967 ;
968 [label="gini = 0.0\nsamples = 4\nvalue = [0, 4]"] ;
967 -> 968 ;
969 [label="gini = 0.0\nsamples = 4\nvalue = [4, 0]"] ;
967 -> 969 ;
970 [label="X[3] <= 6.819\ngini = 0.5\nsamples = 100\nvalue = [50, 50]"] ;
954 -> 970 ;
971 [label="X[6] <= 12.296\ngini = 0.46\nsamples = 39\nvalue = [25, 14]"] ;
970 -> 971 ;
972 [label="gini = 0.0\nsamples = 3\nvalue = [0, 3]"] ;
971 -> 972 ;
973 [label="X[3] <= 5.647\ngini = 0.424\nsamples = 36\nvalue = [25, 11]"] ;
971 -> 973 ;
974 [label="X[6] <= 16.937\ngini = 0.48\nsamples = 10\nvalue = [4, 6]"] ;
973 -> 974 ;
975 [label="gini = 0.0\nsamples = 5\nvalue = [0, 5]"] ;
974 -> 975 ;
976 [label="X[2] <= 31203.128\ngini = 0.32\nsamples = 5\nvalue = [4, 1]"] ;
974 -> 976 ;
977 [label="gini = 0.0\nsamples = 4\nvalue = [4, 0]"] ;
976 -> 977 ;
978 [label="gini = 0.0\nsamples = 1\nvalue = [0, 1]"] ;
976 -> 978 ;
979 [label="X[7] <= 67.98\ngini = 0.311\nsamples = 26\nvalue = [21, 5]"] ;
973 -> 979 ;
980 [label="X[5] <= 449.735\ngini = 0.444\nsamples = 15\nvalue = [10, 5]"] ;
979 -> 980 ;
981 [label="X[5] <= 402.978\ngini = 0.444\nsamples = 6\nvalue = [2, 4]"] ;
980 -> 981 ;
982 [label="gini = 0.0\nsamples = 2\nvalue = [2, 0]"] ;
981 -> 982 ;
983 [label="gini = 0.0\nsamples = 4\nvalue = [0, 4]"] ;
981 -> 983 ;
984 [label="X[7] <= 65.538\ngini = 0.198\nsamples = 9\nvalue = [8, 1]"] ;
980 -> 984 ;
985 [label="gini = 0.0\nsamples = 8\nvalue = [8, 0]"] ;
984 -> 985 ;
986 [label="gini = 0.0\nsamples = 1\nvalue = [0, 1]"] ;
984 -> 986 ;
987 [label="gini = 0.0\nsamples = 11\nvalue = [11, 0]"] ;
979 -> 987 ;
988 [label="X[3] <= 7.602\ngini = 0.484\nsamples = 61\nvalue = [25, 36]"] ;
970 -> 988 ;
989 [label="X[1] <= 201.332\ngini = 0.351\nsamples = 22\nvalue = [5, 17]"] ;
988 -> 989 ;
990 [label="X[7] <= 44.641\ngini = 0.198\nsamples = 18\nvalue = [2, 16]"] ;
989 -> 990 ;
991 [label="gini = 0.0\nsamples = 1\nvalue = [1, 0]"] ;
990 -> 991 ;
992 [label="X[2] <= 33474.649\ngini = 0.111\nsamples = 17\nvalue = [1, 16]"] ;
990 -> 992 ;
993 [label="gini = 0.0\nsamples = 15\nvalue = [0, 15]"] ;
992 -> 993 ;
994 [label="X[2] <= 41687.375\ngini = 0.5\nsamples = 2\nvalue = [1, 1]"] ;
992 -> 994 ;
995 [label="gini = 0.0\nsamples = 1\nvalue = [1, 0]"] ;
994 -> 995 ;
996 [label="gini = 0.0\nsamples = 1\nvalue = [0, 1]"] ;
994 -> 996 ;
997 [label="X[6] <= 14.594\ngini = 0.375\nsamples = 4\nvalue = [3, 1]"] ;
989 -> 997 ;
998 [label="gini = 0.0\nsamples = 1\nvalue = [0, 1]"] ;
997 -> 998 ;
999 [label="gini = 0.0\nsamples = 3\nvalue = [3, 0]"] ;
997 -> 999 ;
1000 [label="X[0] <= 7.514\ngini = 0.5\nsamples = 39\nvalue = [20, 19]"] ;
988 -> 1000 ;
1001 [label="X[7] <= 75.532\ngini = 0.484\nsamples = 34\nvalue = [20, 14]"] ;
1000 -> 1001 ;
1002 [label="X[5] <= 489.275\ngini = 0.5\nsamples = 28\nvalue = [14, 14]"] ;
1001 -> 1002 ;
1003 [label="X[0] <= 6.269\ngini = 0.465\nsamples = 19\nvalue = [12, 7]"] ;
1002 -> 1003 ;
1004 [label="gini = 0.0\nsamples = 4\nvalue = [0, 4]"] ;
1003 -> 1004 ;
1005 [label="X[3] <= 9.925\ngini = 0.32\nsamples = 15\nvalue = [12, 3]"] ;
1003 -> 1005 ;
1006 [label="X[2] <= 11354.624\ngini = 0.245\nsamples = 14\nvalue = [12, 2]"] ;
1005 -> 1006 ;
1007 [label="gini = 0.0\nsamples = 1\nvalue = [0, 1]"] ;
1006 -> 1007 ;
1008 [label="X[6] <= 12.383\ngini = 0.142\nsamples = 13\nvalue = [12, 1]"] ;
1006 -> 1008 ;
1009 [label="gini = 0.0\nsamples = 1\nvalue = [0, 1]"] ;
1008 -> 1009 ;
1010 [label="gini = 0.0\nsamples = 12\nvalue = [12, 0]"] ;
1008 -> 1010 ;
1011 [label="gini = 0.0\nsamples = 1\nvalue = [0, 1]"] ;
1005 -> 1011 ;
1012 [label="X[8] <= 3.995\ngini = 0.346\nsamples = 9\nvalue = [2, 7]"] ;
1002 -> 1012 ;
1013 [label="gini = 0.0\nsamples = 6\nvalue = [0, 6]"] ;
1012 -> 1013 ;
1014 [label="X[2] <= 19036.354\ngini = 0.444\nsamples = 3\nvalue = [2, 1]"] ;
1012 -> 1014 ;
1015 [label="gini = 0.0\nsamples = 2\nvalue = [2, 0]"] ;
1014 -> 1015 ;
1016 [label="gini = 0.0\nsamples = 1\nvalue = [0, 1]"] ;
1014 -> 1016 ;
1017 [label="gini = 0.0\nsamples = 6\nvalue = [6, 0]"] ;
1001 -> 1017 ;
1018 [label="gini = 0.0\nsamples = 5\nvalue = [0, 5]"] ;
1000 -> 1018 ;
1019 [label="X[3] <= 10.52\ngini = 0.133\nsamples = 28\nvalue = [26, 2]"] ;
909 -> 1019 ;
1020 [label="X[7] <= 86.14\ngini = 0.071\nsamples = 27\nvalue = [26, 1]"] ;
1019 -> 1020 ;
1021 [label="gini = 0.0\nsamples = 24\nvalue = [24, 0]"] ;
1020 -> 1021 ;
1022 [label="X[2] <= 23194.457\ngini = 0.444\nsamples = 3\nvalue = [2, 1]"] ;
1020 -> 1022 ;
1023 [label="gini = 0.0\nsamples = 2\nvalue = [2, 0]"] ;
1022 -> 1023 ;
1024 [label="gini = 0.0\nsamples = 1\nvalue = [0, 1]"] ;
1022 -> 1024 ;
1025 [label="gini = 0.0\nsamples = 1\nvalue = [0, 1]"] ;
1019 -> 1025 ;
1026 [label="X[3] <= 8.503\ngini = 0.454\nsamples = 115\nvalue = [40, 75]"] ;
908 -> 1026 ;
1027 [label="X[4] <= 383.22\ngini = 0.375\nsamples = 92\nvalue = [23, 69]"] ;
1026 -> 1027 ;
1028 [label="X[2] <= 21109.388\ngini = 0.326\nsamples = 83\nvalue = [17, 66]"] ;
1027 -> 1028 ;
1029 [label="X[7] <= 40.731\ngini = 0.187\nsamples = 48\nvalue = [5, 43]"] ;
1028 -> 1029 ;
1030 [label="X[8] <= 3.685\ngini = 0.444\nsamples = 3\nvalue = [2, 1]"] ;
1029 -> 1030 ;
1031 [label="gini = 0.0\nsamples = 1\nvalue = [0, 1]"] ;
1030 -> 1031 ;
1032 [label="gini = 0.0\nsamples = 2\nvalue = [2, 0]"] ;
1030 -> 1032 ;
1033 [label="X[8] <= 2.401\ngini = 0.124\nsamples = 45\nvalue = [3, 42]"] ;
1029 -> 1033 ;
1034 [label="gini = 0.0\nsamples = 1\nvalue = [1, 0]"] ;
1033 -> 1034 ;
1035 [label="X[6] <= 5.836\ngini = 0.087\nsamples = 44\nvalue = [2, 42]"] ;
1033 -> 1035 ;
1036 [label="gini = 0.0\nsamples = 1\nvalue = [1, 0]"] ;
1035 -> 1036 ;
1037 [label="X[2] <= 11853.99\ngini = 0.045\nsamples = 43\nvalue = [1, 42]"] ;
1035 -> 1037 ;
1038 [label="X[2] <= 11404.431\ngini = 0.18\nsamples = 10\nvalue = [1, 9]"] ;
1037 -> 1038 ;
1039 [label="gini = 0.0\nsamples = 9\nvalue = [0, 9]"] ;
1038 -> 1039 ;
1040 [label="gini = 0.0\nsamples = 1\nvalue = [1, 0]"] ;
1038 -> 1040 ;
1041 [label="gini = 0.0\nsamples = 33\nvalue = [0, 33]"] ;
1037 -> 1041 ;
1042 [label="X[0] <= 6.389\ngini = 0.451\nsamples = 35\nvalue = [12, 23]"] ;
1028 -> 1042 ;
1043 [label="X[1] <= 268.949\ngini = 0.469\nsamples = 8\nvalue = [5, 3]"] ;
1042 -> 1043 ;
1044 [label="X[6] <= 9.161\ngini = 0.278\nsamples = 6\nvalue = [5, 1]"] ;
1043 -> 1044 ;
1045 [label="gini = 0.0\nsamples = 1\nvalue = [0, 1]"] ;
1044 -> 1045 ;
1046 [label="gini = 0.0\nsamples = 5\nvalue = [5, 0]"] ;
1044 -> 1046 ;
1047 [label="gini = 0.0\nsamples = 2\nvalue = [0, 2]"] ;
1043 -> 1047 ;
1048 [label="X[4] <= 373.849\ngini = 0.384\nsamples = 27\nvalue = [7, 20]"] ;
1042 -> 1048 ;
1049 [label="X[4] <= 368.572\ngini = 0.455\nsamples = 20\nvalue = [7, 13]"] ;
1048 -> 1049 ;
1050 [label="X[0] <= 8.303\ngini = 0.305\nsamples = 16\nvalue = [3, 13]"] ;
1049 -> 1050 ;
1051 [label="X[6] <= 18.889\ngini = 0.231\nsamples = 15\nvalue = [2, 13]"] ;
1050 -> 1051 ;
1052 [label="X[1] <= 212.505\ngini = 0.142\nsamples = 13\nvalue = [1, 12]"] ;
1051 -> 1052 ;
1053 [label="gini = 0.0\nsamples = 1\nvalue = [1, 0]"] ;
1052 -> 1053 ;
1054 [label="gini = 0.0\nsamples = 12\nvalue = [0, 12]"] ;
1052 -> 1054 ;
1055 [label="X[1] <= 224.24\ngini = 0.5\nsamples = 2\nvalue = [1, 1]"] ;
1051 -> 1055 ;
1056 [label="gini = 0.0\nsamples = 1\nvalue = [0, 1]"] ;
1055 -> 1056 ;
1057 [label="gini = 0.0\nsamples = 1\nvalue = [1, 0]"] ;
1055 -> 1057 ;
1058 [label="gini = 0.0\nsamples = 1\nvalue = [1, 0]"] ;
1050 -> 1058 ;
1059 [label="gini = 0.0\nsamples = 4\nvalue = [4, 0]"] ;
1049 -> 1059 ;
1060 [label="gini = 0.0\nsamples = 7\nvalue = [0, 7]"] ;
1048 -> 1060 ;
1061 [label="X[6] <= 13.546\ngini = 0.444\nsamples = 9\nvalue = [6, 3]"] ;
1027 -> 1061 ;
1062 [label="gini = 0.0\nsamples = 5\nvalue = [5, 0]"] ;
1061 -> 1062 ;
1063 [label="X[6] <= 16.706\ngini = 0.375\nsamples = 4\nvalue = [1, 3]"] ;
1061 -> 1063 ;
1064 [label="gini = 0.0\nsamples = 3\nvalue = [0, 3]"] ;
1063 -> 1064 ;
1065 [label="gini = 0.0\nsamples = 1\nvalue = [1, 0]"] ;
1063 -> 1065 ;
1066 [label="X[2] <= 22926.042\ngini = 0.386\nsamples = 23\nvalue = [17, 6]"] ;
1026 -> 1066 ;
1067 [label="X[5] <= 400.209\ngini = 0.5\nsamples = 12\nvalue = [6, 6]"] ;
1066 -> 1067 ;
1068 [label="X[4] <= 376.807\ngini = 0.278\nsamples = 6\nvalue = [5, 1]"] ;
1067 -> 1068 ;
1069 [label="gini = 0.0\nsamples = 5\nvalue = [5, 0]"] ;
1068 -> 1069 ;
1070 [label="gini = 0.0\nsamples = 1\nvalue = [0, 1]"] ;
1068 -> 1070 ;
1071 [label="X[7] <= 58.941\ngini = 0.278\nsamples = 6\nvalue = [1, 5]"] ;
1067 -> 1071 ;
1072 [label="gini = 0.0\nsamples = 1\nvalue = [1, 0]"] ;
1071 -> 1072 ;
1073 [label="gini = 0.0\nsamples = 5\nvalue = [0, 5]"] ;
1071 -> 1073 ;
1074 [label="gini = 0.0\nsamples = 11\nvalue = [11, 0]"] ;
1066 -> 1074 ;
1075 [label="X[2] <= 30710.405\ngini = 0.389\nsamples = 412\nvalue = [303, 109]"] ;
215 -> 1075 ;
1076 [label="X[3] <= 7.097\ngini = 0.338\nsamples = 362\nvalue = [284, 78]"] ;
1075 -> 1076 ;
1077 [label="X[4] <= 316.754\ngini = 0.198\nsamples = 189\nvalue = [168, 21]"] ;
1076 -> 1077 ;
1078 [label="X[2] <= 24972.896\ngini = 0.404\nsamples = 32\nvalue = [23, 9]"] ;
1077 -> 1078 ;
1079 [label="X[8] <= 4.232\ngini = 0.26\nsamples = 26\nvalue = [22, 4]"] ;
1078 -> 1079 ;
1080 [label="gini = 0.0\nsamples = 19\nvalue = [19, 0]"] ;
1079 -> 1080 ;
1081 [label="X[3] <= 6.098\ngini = 0.49\nsamples = 7\nvalue = [3, 4]"] ;
1079 -> 1081 ;
1082 [label="X[1] <= 226.643\ngini = 0.375\nsamples = 4\nvalue = [3, 1]"] ;
1081 -> 1082 ;
1083 [label="gini = 0.0\nsamples = 3\nvalue = [3, 0]"] ;
1082 -> 1083 ;
1084 [label="gini = 0.0\nsamples = 1\nvalue = [0, 1]"] ;
1082 -> 1084 ;
1085 [label="gini = 0.0\nsamples = 3\nvalue = [0, 3]"] ;
1081 -> 1085 ;
1086 [label="X[4] <= 299.923\ngini = 0.278\nsamples = 6\nvalue = [1, 5]"] ;
1078 -> 1086 ;
1087 [label="gini = 0.0\nsamples = 1\nvalue = [1, 0]"] ;
1086 -> 1087 ;
1088 [label="gini = 0.0\nsamples = 5\nvalue = [0, 5]"] ;
1086 -> 1088 ;
1089 [label="X[6] <= 11.13\ngini = 0.141\nsamples = 157\nvalue = [145, 12]"] ;
1077 -> 1089 ;
1090 [label="X[6] <= 9.832\ngini = 0.363\nsamples = 21\nvalue = [16, 5]"] ;
1089 -> 1090 ;
1091 [label="gini = 0.0\nsamples = 11\nvalue = [11, 0]"] ;
1090 -> 1091 ;
1092 [label="X[5] <= 359.126\ngini = 0.5\nsamples = 10\nvalue = [5, 5]"] ;
1090 -> 1092 ;
1093 [label="gini = 0.0\nsamples = 3\nvalue = [3, 0]"] ;
1092 -> 1093 ;
1094 [label="X[2] <= 9913.608\ngini = 0.408\nsamples = 7\nvalue = [2, 5]"] ;
1092 -> 1094 ;
1095 [label="gini = 0.0\nsamples = 2\nvalue = [2, 0]"] ;
1094 -> 1095 ;
1096 [label="gini = 0.0\nsamples = 5\nvalue = [0, 5]"] ;
1094 -> 1096 ;
1097 [label="X[0] <= 8.453\ngini = 0.098\nsamples = 136\nvalue = [129, 7]"] ;
1089 -> 1097 ;
1098 [label="X[2] <= 21772.28\ngini = 0.48\nsamples = 5\nvalue = [3, 2]"] ;
1097 -> 1098 ;
1099 [label="gini = 0.0\nsamples = 2\nvalue = [0, 2]"] ;
1098 -> 1099 ;
1100 [label="gini = 0.0\nsamples = 3\nvalue = [3, 0]"] ;
1098 -> 1100 ;
1101 [label="X[6] <= 21.662\ngini = 0.073\nsamples = 131\nvalue = [126, 5]"] ;
1097 -> 1101 ;
1102 [label="X[2] <= 21875.745\ngini = 0.061\nsamples = 128\nvalue = [124, 4]"] ;
1101 -> 1102 ;
1103 [label="X[0] <= 8.55\ngini = 0.02\nsamples = 97\nvalue = [96, 1]"] ;
1102 -> 1103 ;
1104 [label="X[2] <= 17137.312\ngini = 0.278\nsamples = 6\nvalue = [5, 1]"] ;
1103 -> 1104 ;
1105 [label="gini = 0.0\nsamples = 5\nvalue = [5, 0]"] ;
1104 -> 1105 ;
1106 [label="gini = 0.0\nsamples = 1\nvalue = [0, 1]"] ;
1104 -> 1106 ;
1107 [label="gini = 0.0\nsamples = 91\nvalue = [91, 0]"] ;
1103 -> 1107 ;
1108 [label="X[2] <= 22027.243\ngini = 0.175\nsamples = 31\nvalue = [28, 3]"] ;
1102 -> 1108 ;
1109 [label="gini = 0.0\nsamples = 1\nvalue = [0, 1]"] ;
1108 -> 1109 ;
1110 [label="X[1] <= 202.949\ngini = 0.124\nsamples = 30\nvalue = [28, 2]"] ;
1108 -> 1110 ;
1111 [label="X[1] <= 202.467\ngini = 0.32\nsamples = 10\nvalue = [8, 2]"] ;
1110 -> 1111 ;
1112 [label="X[8] <= 3.642\ngini = 0.198\nsamples = 9\nvalue = [8, 1]"] ;
1111 -> 1112 ;
1113 [label="gini = 0.0\nsamples = 1\nvalue = [0, 1]"] ;
1112 -> 1113 ;
1114 [label="gini = 0.0\nsamples = 8\nvalue = [8, 0]"] ;
1112 -> 1114 ;
1115 [label="gini = 0.0\nsamples = 1\nvalue = [0, 1]"] ;
1111 -> 1115 ;
1116 [label="gini = 0.0\nsamples = 20\nvalue = [20, 0]"] ;
1110 -> 1116 ;
1117 [label="X[3] <= 6.531\ngini = 0.444\nsamples = 3\nvalue = [2, 1]"] ;
1101 -> 1117 ;
1118 [label="gini = 0.0\nsamples = 1\nvalue = [0, 1]"] ;
1117 -> 1118 ;
1119 [label="gini = 0.0\nsamples = 2\nvalue = [2, 0]"] ;
1117 -> 1119 ;
1120 [label="X[7] <= 50.29\ngini = 0.442\nsamples = 173\nvalue = [116, 57]"] ;
1076 -> 1120 ;
1121 [label="X[3] <= 7.165\ngini = 0.147\nsamples = 25\nvalue = [23, 2]"] ;
1120 -> 1121 ;
1122 [label="gini = 0.0\nsamples = 1\nvalue = [0, 1]"] ;
1121 -> 1122 ;
1123 [label="X[5] <= 529.615\ngini = 0.08\nsamples = 24\nvalue = [23, 1]"] ;
1121 -> 1123 ;
1124 [label="gini = 0.0\nsamples = 22\nvalue = [22, 0]"] ;
1123 -> 1124 ;
1125 [label="X[6] <= 15.105\ngini = 0.5\nsamples = 2\nvalue = [1, 1]"] ;
1123 -> 1125 ;
1126 [label="gini = 0.0\nsamples = 1\nvalue = [0, 1]"] ;
1125 -> 1126 ;
1127 [label="gini = 0.0\nsamples = 1\nvalue = [1, 0]"] ;
1125 -> 1127 ;
1128 [label="X[4] <= 320.079\ngini = 0.467\nsamples = 148\nvalue = [93, 55]"] ;
1120 -> 1128 ;
1129 [label="X[3] <= 7.716\ngini = 0.454\nsamples = 23\nvalue = [8, 15]"] ;
1128 -> 1129 ;
1130 [label="X[8] <= 3.737\ngini = 0.444\nsamples = 12\nvalue = [8, 4]"] ;
1129 -> 1130 ;
1131 [label="X[0] <= 10.063\ngini = 0.49\nsamples = 7\nvalue = [3, 4]"] ;
1130 -> 1131 ;
1132 [label="gini = 0.0\nsamples = 4\nvalue = [0, 4]"] ;
1131 -> 1132 ;
1133 [label="gini = 0.0\nsamples = 3\nvalue = [3, 0]"] ;
1131 -> 1133 ;
1134 [label="gini = 0.0\nsamples = 5\nvalue = [5, 0]"] ;
1130 -> 1134 ;
1135 [label="gini = 0.0\nsamples = 11\nvalue = [0, 11]"] ;
1129 -> 1135 ;
1136 [label="X[6] <= 15.028\ngini = 0.435\nsamples = 125\nvalue = [85, 40]"] ;
1128 -> 1136 ;
1137 [label="X[0] <= 10.163\ngini = 0.49\nsamples = 63\nvalue = [36, 27]"] ;
1136 -> 1137 ;
1138 [label="X[0] <= 9.476\ngini = 0.5\nsamples = 55\nvalue = [28, 27]"] ;
1137 -> 1138 ;
1139 [label="X[8] <= 5.569\ngini = 0.478\nsamples = 43\nvalue = [26, 17]"] ;
1138 -> 1139 ;
1140 [label="X[7] <= 101.838\ngini = 0.455\nsamples = 40\nvalue = [26, 14]"] ;
1139 -> 1140 ;
1141 [label="X[7] <= 55.555\ngini = 0.432\nsamples = 38\nvalue = [26, 12]"] ;
1140 -> 1141 ;
1142 [label="X[1] <= 224.943\ngini = 0.444\nsamples = 6\nvalue = [2, 4]"] ;
1141 -> 1142 ;
1143 [label="gini = 0.0\nsamples = 4\nvalue = [0, 4]"] ;
1142 -> 1143 ;
1144 [label="gini = 0.0\nsamples = 2\nvalue = [2, 0]"] ;
1142 -> 1144 ;
1145 [label="X[5] <= 473.136\ngini = 0.375\nsamples = 32\nvalue = [24, 8]"] ;
1141 -> 1145 ;
1146 [label="X[6] <= 14.814\ngini = 0.236\nsamples = 22\nvalue = [19, 3]"] ;
1145 -> 1146 ;
1147 [label="X[2] <= 12241.146\ngini = 0.172\nsamples = 21\nvalue = [19, 2]"] ;
1146 -> 1147 ;
1148 [label="X[5] <= 385.814\ngini = 0.444\nsamples = 6\nvalue = [4, 2]"] ;
1147 -> 1148 ;
1149 [label="gini = 0.0\nsamples = 3\nvalue = [3, 0]"] ;
1148 -> 1149 ;
1150 [label="X[0] <= 9.114\ngini = 0.444\nsamples = 3\nvalue = [1, 2]"] ;
1148 -> 1150 ;
1151 [label="gini = 0.0\nsamples = 2\nvalue = [0, 2]"] ;
1150 -> 1151 ;
1152 [label="gini = 0.0\nsamples = 1\nvalue = [1, 0]"] ;
1150 -> 1152 ;
1153 [label="gini = 0.0\nsamples = 15\nvalue = [15, 0]"] ;
1147 -> 1153 ;
1154 [label="gini = 0.0\nsamples = 1\nvalue = [0, 1]"] ;
1146 -> 1154 ;
1155 [label="X[3] <= 9.602\ngini = 0.5\nsamples = 10\nvalue = [5, 5]"] ;
1145 -> 1155 ;
1156 [label="X[0] <= 8.582\ngini = 0.469\nsamples = 8\nvalue = [3, 5]"] ;
1155 -> 1156 ;
1157 [label="gini = 0.0\nsamples = 2\nvalue = [2, 0]"] ;
1156 -> 1157 ;
1158 [label="X[4] <= 357.752\ngini = 0.278\nsamples = 6\nvalue = [1, 5]"] ;
1156 -> 1158 ;
1159 [label="gini = 0.0\nsamples = 5\nvalue = [0, 5]"] ;
1158 -> 1159 ;
1160 [label="gini = 0.0\nsamples = 1\nvalue = [1, 0]"] ;
1158 -> 1160 ;
1161 [label="gini = 0.0\nsamples = 2\nvalue = [2, 0]"] ;
1155 -> 1161 ;
1162 [label="gini = 0.0\nsamples = 2\nvalue = [0, 2]"] ;
1140 -> 1162 ;
1163 [label="gini = 0.0\nsamples = 3\nvalue = [0, 3]"] ;
1139 -> 1163 ;
1164 [label="X[6] <= 11.842\ngini = 0.278\nsamples = 12\nvalue = [2, 10]"] ;
1138 -> 1164 ;
1165 [label="X[6] <= 11.092\ngini = 0.48\nsamples = 5\nvalue = [2, 3]"] ;
1164 -> 1165 ;
1166 [label="gini = 0.0\nsamples = 3\nvalue = [0, 3]"] ;
1165 -> 1166 ;
1167 [label="gini = 0.0\nsamples = 2\nvalue = [2, 0]"] ;
1165 -> 1167 ;
1168 [label="gini = 0.0\nsamples = 7\nvalue = [0, 7]"] ;
1164 -> 1168 ;
1169 [label="gini = 0.0\nsamples = 8\nvalue = [8, 0]"] ;
1137 -> 1169 ;
1170 [label="X[5] <= 346.43\ngini = 0.331\nsamples = 62\nvalue = [49, 13]"] ;
1136 -> 1170 ;
1171 [label="X[3] <= 8.001\ngini = 0.496\nsamples = 11\nvalue = [5, 6]"] ;
1170 -> 1171 ;
1172 [label="X[7] <= 84.233\ngini = 0.32\nsamples = 5\nvalue = [4, 1]"] ;
1171 -> 1172 ;
1173 [label="gini = 0.0\nsamples = 4\nvalue = [4, 0]"] ;
1172 -> 1173 ;
1174 [label="gini = 0.0\nsamples = 1\nvalue = [0, 1]"] ;
1172 -> 1174 ;
1175 [label="X[2] <= 6682.716\ngini = 0.278\nsamples = 6\nvalue = [1, 5]"] ;
1171 -> 1175 ;
1176 [label="gini = 0.0\nsamples = 1\nvalue = [1, 0]"] ;
1175 -> 1176 ;
1177 [label="gini = 0.0\nsamples = 5\nvalue = [0, 5]"] ;
1175 -> 1177 ;
1178 [label="X[8] <= 3.721\ngini = 0.237\nsamples = 51\nvalue = [44, 7]"] ;
1170 -> 1178 ;
1179 [label="X[4] <= 343.141\ngini = 0.42\nsamples = 20\nvalue = [14, 6]"] ;
1178 -> 1179 ;
1180 [label="X[3] <= 7.226\ngini = 0.245\nsamples = 14\nvalue = [12, 2]"] ;
1179 -> 1180 ;
1181 [label="gini = 0.0\nsamples = 1\nvalue = [0, 1]"] ;
1180 -> 1181 ;
1182 [label="X[3] <= 9.852\ngini = 0.142\nsamples = 13\nvalue = [12, 1]"] ;
1180 -> 1182 ;
1183 [label="gini = 0.0\nsamples = 12\nvalue = [12, 0]"] ;
1182 -> 1183 ;
1184 [label="gini = 0.0\nsamples = 1\nvalue = [0, 1]"] ;
1182 -> 1184 ;
1185 [label="X[5] <= 453.749\ngini = 0.444\nsamples = 6\nvalue = [2, 4]"] ;
1179 -> 1185 ;
1186 [label="gini = 0.0\nsamples = 2\nvalue = [2, 0]"] ;
1185 -> 1186 ;
1187 [label="gini = 0.0\nsamples = 4\nvalue = [0, 4]"] ;
1185 -> 1187 ;
1188 [label="X[3] <= 7.297\ngini = 0.062\nsamples = 31\nvalue = [30, 1]"] ;
1178 -> 1188 ;
1189 [label="X[6] <= 17.369\ngini = 0.32\nsamples = 5\nvalue = [4, 1]"] ;
1188 -> 1189 ;
1190 [label="gini = 0.0\nsamples = 4\nvalue = [4, 0]"] ;
1189 -> 1190 ;
1191 [label="gini = 0.0\nsamples = 1\nvalue = [0, 1]"] ;
1189 -> 1191 ;
1192 [label="gini = 0.0\nsamples = 26\nvalue = [26, 0]"] ;
1188 -> 1192 ;
1193 [label="X[3] <= 4.774\ngini = 0.471\nsamples = 50\nvalue = [19, 31]"] ;
1075 -> 1193 ;
1194 [label="gini = 0.0\nsamples = 6\nvalue = [6, 0]"] ;
1193 -> 1194 ;
1195 [label="X[4] <= 353.548\ngini = 0.416\nsamples = 44\nvalue = [13, 31]"] ;
1193 -> 1195 ;
1196 [label="X[8] <= 2.91\ngini = 0.349\nsamples = 40\nvalue = [9, 31]"] ;
1195 -> 1196 ;
1197 [label="X[2] <= 32504.195\ngini = 0.444\nsamples = 6\nvalue = [4, 2]"] ;
1196 -> 1197 ;
1198 [label="gini = 0.0\nsamples = 2\nvalue = [0, 2]"] ;
1197 -> 1198 ;
1199 [label="gini = 0.0\nsamples = 4\nvalue = [4, 0]"] ;
1197 -> 1199 ;
1200 [label="X[8] <= 5.124\ngini = 0.251\nsamples = 34\nvalue = [5, 29]"] ;
1196 -> 1200 ;
1201 [label="X[2] <= 33509.539\ngini = 0.213\nsamples = 33\nvalue = [4, 29]"] ;
1200 -> 1201 ;
1202 [label="X[3] <= 6.758\ngini = 0.391\nsamples = 15\nvalue = [4, 11]"] ;
1201 -> 1202 ;
1203 [label="gini = 0.0\nsamples = 2\nvalue = [2, 0]"] ;
1202 -> 1203 ;
1204 [label="X[8] <= 3.232\ngini = 0.26\nsamples = 13\nvalue = [2, 11]"] ;
1202 -> 1204 ;
1205 [label="gini = 0.0\nsamples = 1\nvalue = [1, 0]"] ;
1204 -> 1205 ;
1206 [label="X[7] <= 59.491\ngini = 0.153\nsamples = 12\nvalue = [1, 11]"] ;
1204 -> 1206 ;
1207 [label="X[7] <= 49.906\ngini = 0.5\nsamples = 2\nvalue = [1, 1]"] ;
1206 -> 1207 ;
1208 [label="gini = 0.0\nsamples = 1\nvalue = [0, 1]"] ;
1207 -> 1208 ;
1209 [label="gini = 0.0\nsamples = 1\nvalue = [1, 0]"] ;
1207 -> 1209 ;
1210 [label="gini = 0.0\nsamples = 10\nvalue = [0, 10]"] ;
1206 -> 1210 ;
1211 [label="gini = 0.0\nsamples = 18\nvalue = [0, 18]"] ;
1201 -> 1211 ;
1212 [label="gini = 0.0\nsamples = 1\nvalue = [1, 0]"] ;
1200 -> 1212 ;
1213 [label="gini = 0.0\nsamples = 4\nvalue = [4, 0]"] ;
1195 -> 1213 ;
1214 [label="X[0] <= 7.61\ngini = 0.499\nsamples = 232\nvalue = [111, 121]"] ;
24 -> 1214 ;
1215 [label="X[2] <= 19880.312\ngini = 0.449\nsamples = 159\nvalue = [54, 105]"] ;
1214 -> 1215 ;
1216 [label="X[3] <= 7.883\ngini = 0.337\nsamples = 98\nvalue = [21, 77]"] ;
1215 -> 1216 ;
1217 [label="X[0] <= 6.722\ngini = 0.449\nsamples = 50\nvalue = [17, 33]"] ;
1216 -> 1217 ;
1218 [label="X[7] <= 86.494\ngini = 0.284\nsamples = 35\nvalue = [6, 29]"] ;
1217 -> 1218 ;
1219 [label="X[8] <= 5.076\ngini = 0.213\nsamples = 33\nvalue = [4, 29]"] ;
1218 -> 1219 ;
1220 [label="X[3] <= 7.794\ngini = 0.124\nsamples = 30\nvalue = [2, 28]"] ;
1219 -> 1220 ;
1221 [label="X[5] <= 590.564\ngini = 0.067\nsamples = 29\nvalue = [1, 28]"] ;
1220 -> 1221 ;
1222 [label="gini = 0.0\nsamples = 27\nvalue = [0, 27]"] ;
1221 -> 1222 ;
1223 [label="X[2] <= 9853.194\ngini = 0.5\nsamples = 2\nvalue = [1, 1]"] ;
1221 -> 1223 ;
1224 [label="gini = 0.0\nsamples = 1\nvalue = [1, 0]"] ;
1223 -> 1224 ;
1225 [label="gini = 0.0\nsamples = 1\nvalue = [0, 1]"] ;
1223 -> 1225 ;
1226 [label="gini = 0.0\nsamples = 1\nvalue = [1, 0]"] ;
1220 -> 1226 ;
1227 [label="X[8] <= 5.327\ngini = 0.444\nsamples = 3\nvalue = [2, 1]"] ;
1219 -> 1227 ;
1228 [label="gini = 0.0\nsamples = 2\nvalue = [2, 0]"] ;
1227 -> 1228 ;
1229 [label="gini = 0.0\nsamples = 1\nvalue = [0, 1]"] ;
1227 -> 1229 ;
1230 [label="gini = 0.0\nsamples = 2\nvalue = [2, 0]"] ;
1218 -> 1230 ;
1231 [label="X[0] <= 7.373\ngini = 0.391\nsamples = 15\nvalue = [11, 4]"] ;
1217 -> 1231 ;
1232 [label="X[3] <= 7.691\ngini = 0.26\nsamples = 13\nvalue = [11, 2]"] ;
1231 -> 1232 ;
1233 [label="gini = 0.0\nsamples = 10\nvalue = [10, 0]"] ;
1232 -> 1233 ;
1234 [label="X[2] <= 13625.453\ngini = 0.444\nsamples = 3\nvalue = [1, 2]"] ;
1232 -> 1234 ;
1235 [label="gini = 0.0\nsamples = 2\nvalue = [0, 2]"] ;
1234 -> 1235 ;
1236 [label="gini = 0.0\nsamples = 1\nvalue = [1, 0]"] ;
1234 -> 1236 ;
1237 [label="gini = 0.0\nsamples = 2\nvalue = [0, 2]"] ;
1231 -> 1237 ;
1238 [label="X[8] <= 5.441\ngini = 0.153\nsamples = 48\nvalue = [4, 44]"] ;
1216 -> 1238 ;
1239 [label="X[7] <= 75.565\ngini = 0.12\nsamples = 47\nvalue = [3, 44]"] ;
1238 -> 1239 ;
1240 [label="gini = 0.0\nsamples = 35\nvalue = [0, 35]"] ;
1239 -> 1240 ;
1241 [label="X[1] <= 181.631\ngini = 0.375\nsamples = 12\nvalue = [3, 9]"] ;
1239 -> 1241 ;
1242 [label="X[6] <= 14.739\ngini = 0.5\nsamples = 6\nvalue = [3, 3]"] ;
1241 -> 1242 ;
1243 [label="X[2] <= 8764.047\ngini = 0.375\nsamples = 4\nvalue = [1, 3]"] ;
1242 -> 1243 ;
1244 [label="gini = 0.0\nsamples = 1\nvalue = [1, 0]"] ;
1243 -> 1244 ;
1245 [label="gini = 0.0\nsamples = 3\nvalue = [0, 3]"] ;
1243 -> 1245 ;
1246 [label="gini = 0.0\nsamples = 2\nvalue = [2, 0]"] ;
1242 -> 1246 ;
1247 [label="gini = 0.0\nsamples = 6\nvalue = [0, 6]"] ;
1241 -> 1247 ;
1248 [label="gini = 0.0\nsamples = 1\nvalue = [1, 0]"] ;
1238 -> 1248 ;
1249 [label="X[6] <= 10.512\ngini = 0.497\nsamples = 61\nvalue = [33, 28]"] ;
1215 -> 1249 ;
1250 [label="gini = 0.0\nsamples = 9\nvalue = [9, 0]"] ;
1249 -> 1250 ;
1251 [label="X[7] <= 71.686\ngini = 0.497\nsamples = 52\nvalue = [24, 28]"] ;
1249 -> 1251 ;
1252 [label="X[1] <= 144.674\ngini = 0.438\nsamples = 34\nvalue = [11, 23]"] ;
1251 -> 1252 ;
1253 [label="X[7] <= 69.008\ngini = 0.278\nsamples = 6\nvalue = [5, 1]"] ;
1252 -> 1253 ;
1254 [label="gini = 0.0\nsamples = 5\nvalue = [5, 0]"] ;
1253 -> 1254 ;
1255 [label="gini = 0.0\nsamples = 1\nvalue = [0, 1]"] ;
1253 -> 1255 ;
1256 [label="X[0] <= 7.069\ngini = 0.337\nsamples = 28\nvalue = [6, 22]"] ;
1252 -> 1256 ;
